SVM-light Version V6.02
2 # kernel type
3 # kernel parameter -d 
1 # kernel parameter -g 
1 # kernel parameter -s 
1 # kernel parameter -r 
empty# kernel parameter -u 
10 # highest feature index 
39218 # number of training documents 
39200 # number of support vectors plus 1 
0.90559366 # threshold b, each following line is a SV (starting with alpha*y)
-0.09530483136924894349562009665533 1:0.76612663 2:45 3:2 4:0.80298215 5:9120 6:13 7:0 8:6 9:0 10:2 # 1
-0.094722882532952135115067449078197 1:0.96467257 2:40 3:3 4:0.38296476 5:13700 6:9 7:3 8:1 9:1 10:2 # 14
-0.10000000000000000555111512312578 1:0.025655678 2:38 3:0 4:0.47584137 5:3000 6:7 7:0 8:1 9:0 10:2 # 22
-0.097974250855377920110811373888282 1:0.72815049 2:31 3:0 4:0.82472509 5:3000 6:10 7:0 8:2 9:0 10:1 # 52
-0.094967149200553935273205752309877 1:0.73447752 2:45 3:0 4:0.59147763 5:4716 6:13 7:0 8:2 9:0 10:2 # 89
0.010000000000000001942890293094024 1:0.957151 2:40 3:0 4:0.1218762 5:2600 6:4 7:0 8:0 9:0 10:1 # 2
0.010000000000000001942890293094024 1:0.65818012 2:38 3:1 4:0.085113376 5:3042 6:2 7:1 8:0 9:0 10:0 # 3
0.010000000000000001942890293094024 1:0.23380977 2:30 3:0 4:0.036049683 5:3300 6:5 7:0 8:0 9:0 10:0 # 4
0.010000000000000001942890293094024 1:0.75446367 2:39 3:0 4:0.20994002 5:3500 6:8 7:0 8:0 9:0 10:0 # 8
0.010000000000000001942890293094024 1:0.11695065 2:27 3:0 4:46 5:0 6:2 7:0 8:0 9:0 10:0 # 9
-0.10000000000000000555111512312578 1:0.53411561 2:31 3:0 4:0.12693124 5:3300 6:3 7:0 8:0 9:1 10:0 # 9329
-0.090826375678451309880756525672041 1:0.99999988 2:38 3:0 4:0.53863901 5:2600 6:3 7:1 8:1 9:1 10:0 # 47555
-0.091217133052509447033173728414113 1:0.82793015 2:38 3:0 4:0.7374087 5:2600 6:4 7:0 8:2 9:1 10:0 # 34214
0.010000000000000001942890293094024 1:0.10272209 2:38 3:0 4:0.66477841 5:3000 6:7 7:0 8:0 9:0 10:2 # 82335
0.010000000000000001942890293094024 1:0.18165267 2:30 3:0 4:0.43252251 5:3000 6:10 7:0 8:2 9:0 10:1 # 69351
0.010000000000000001942890293094024 1:0 2:38 3:0 4:0.48383871 5:3000 6:6 7:0 8:1 9:0 10:1 # 55979
-0.091466693186546210725396122143138 1:0.95209581 2:30 3:1 4:0.089636788 5:3000 6:10 7:0 8:0 9:0 10:0 # 18202
-0.10000000000000000555111512312578 1:0.99999988 2:39 3:0 4:0.35254914 5:3000 6:3 7:0 8:1 9:0 10:1 # 42366
-0.094105133079034897214398824871751 1:0.99999988 2:36 3:1 4:0.58813727 5:3000 6:7 7:1 8:0 9:2 10:1 # 31917
0.010000000000000001942890293094024 1:0.28849301 2:31 3:0 4:0.072705239 5:3300 6:3 7:0 8:0 9:0 10:0 # 23624
0.010000000000000001942890293094024 1:0.60363084 2:30 3:0 4:0.2014541 5:3300 6:3 7:0 8:0 9:0 10:0 # 79474
0.010000000000000001942890293094024 1:0.99999988 2:31 3:0 4:0.077552259 5:3300 6:2 7:0 8:0 9:0 10:0 # 26927
-0.095179120371155279123343007086078 1:1.2325581 2:30 3:0 4:0.020902757 5:3300 6:1 7:0 8:0 9:0 10:2 # 15891
-0.094253755525233517964522889087675 1:0.99999988 2:39 3:0 4:0.041420117 5:3041 6:2 7:1 8:0 9:0 10:3 # 1801
-0.095834037714206066205235856614308 1:1.0587939 2:41 3:0 4:0.35132819 5:3500 6:11 7:0 8:0 9:0 10:0 # 27918
0.010000000000000001942890293094024 1:0.16774051 2:39 3:0 4:0.36421192 5:3000 6:3 7:0 8:1 9:0 10:1 # 97045
0.010000000000000001942890293094024 1:0.99999988 2:38 3:0 4:0.35554814 5:3000 6:3 7:0 8:1 9:0 10:0 # 88938
0.010000000000000001942890293094024 1:0.034280177 2:39 3:0 4:0.010663112 5:3000 6:3 7:0 8:0 9:0 10:1 # 36957
-0.094797706287067851071981294808211 1:0.47598001 2:39 3:1 4:0.52149284 5:3000 6:3 7:0 8:2 9:0 10:3 # 7325
-0.094952332686270346506773876171792 1:0.13572854 2:39 3:0 4:0.19026992 5:3000 6:3 7:2 8:0 9:2 10:2 # 38845
-0.097251594738184343746922877471661 1:0.99999988 2:37 3:0 4:0 5:3000 6:0 7:0 8:0 9:1 10:0 # 20316
0.010000000000000001942890293094024 1:0.55887383 2:30 3:0 4:0.21459514 5:3000 6:9 7:0 8:0 9:0 10:0 # 1671
0.010000000000000001942890293094024 1:0.11097333 2:30 3:0 4:0.041986004 5:3000 6:11 7:0 8:0 9:0 10:0 # 81124
0.010000000000000001942890293094024 1:0 2:31 3:0 4:0.03365545 5:3000 6:10 7:0 8:0 9:0 10:0 # 2487
-0.10000000000000000555111512312578 1:0.042189281 2:30 3:1 4:0.1586138 5:3000 6:6 7:0 8:0 9:0 10:1 # 38671
-0.095571994083152200794017971929861 1:0.97346842 2:30 3:1 4:0.40519828 5:3000 6:14 7:1 8:0 9:0 10:0 # 70675
-0.09424948727917514812446597716189 1:1.1422334 2:42 3:3 4:0.32256824 5:2600 6:5 7:1 8:0 9:0 10:1 # 28901
0.010000000000000001942890293094024 1:0.4790419 2:37 3:0 4:0.0023325561 5:3000 6:1 7:0 8:0 9:1 10:0 # 18930
0.010000000000000001942890293094024 1:0.57372487 2:37 3:0 4:0.7647059 5:2600 6:4 7:1 8:1 9:0 10:0 # 74395
0.010000000000000001942890293094024 1:0.21728578 2:41 3:0 4:0.91516709 5:3500 6:10 7:0 8:1 9:0 10:0 # 75290
-0.094623068408931754191826257738285 1:0.76580852 2:35 3:0 4:0.33602461 5:2600 6:3 7:3 8:0 9:1 10:2 # 94915
-0.094270630901205576535062391485553 1:0.71222079 2:41 3:0 4:0.3622126 5:3000 6:9 7:1 8:0 9:0 10:3 # 63511
-0.093750167524620620085329392168205 1:1.3033932 2:34 3:2 4:0.13802384 5:2600 6:5 7:1 8:0 9:0 10:1 # 71745
0.010000000000000001942890293094024 1:0.46737507 2:30 3:0 4:0.21126291 5:3000 6:6 7:0 8:0 9:0 10:1 # 15486
0.010000000000000001942890293094024 1:0.1129057 2:30 3:1 4:0.16194601 5:3000 6:5 7:0 8:0 9:0 10:0 # 93206
0.010000000000000001942890293094024 1:0.17863801 2:31 3:0 4:0.24458514 5:3000 6:6 7:0 8:0 9:0 10:1 # 12691
-0.10000000000000000555111512312578 1:0.30219936 2:29 3:0 4:0.22825725 5:3000 6:5 7:0 8:0 9:1 10:0 # 98757
-0.10000000000000000555111512312578 1:1.0538923 2:30 3:1 4:0.36454517 5:3000 6:3 7:0 8:0 9:0 10:0 # 85180
-0.095251221153318632595130566187436 1:0.96200693 2:33 3:0 4:0.27757415 5:3000 6:6 7:0 8:0 9:1 10:0 # 87466
0.010000000000000001942890293094024 1:0.9633559 2:29 3:1 4:0.47617462 5:3000 6:13 7:0 8:0 9:0 10:0 # 11463
0.010000000000000001942890293094024 1:0.4936083 2:31 3:0 4:0.86504501 5:3000 6:9 7:0 8:1 9:0 10:2 # 70430
0.010000000000000001942890293094024 1:0.14980002 2:40 3:0 4:0.30256581 5:3000 6:3 7:0 8:1 9:0 10:3 # 62368
-0.096259877122425785422876742813969 1:0.99999988 2:28 3:0 4:0.60313231 5:3000 6:6 7:1 8:0 9:0 10:2 # 46122
-0.09452657598377312009318984564743 1:0.62703842 2:31 3:0 4:0.21659447 5:3000 6:4 7:1 8:0 9:1 10:3 # 39214
-0.095602259100315833961758471559733 1:0.95157826 2:34 3:1 4:0.4358547 5:3000 6:10 7:0 8:0 9:0 10:3 # 24935
0.010000000000000001942890293094024 1:0.015169593 2:29 3:0 4:0.14695102 5:3000 6:5 7:0 8:0 9:0 10:0 # 26294
0.010000000000000001942890293094024 1:0.86399567 2:33 3:0 4:0.14895035 5:3000 6:5 7:0 8:0 9:0 10:0 # 96647
0.010000000000000001942890293094024 1:0.089805394 2:28 3:0 4:0.092302568 5:3000 6:5 7:0 8:0 9:0 10:0 # 96713
-0.10000000000000000555111512312578 1:0.84303349 2:33 3:1 4:0.15028323 5:3000 6:5 7:0 8:0 9:0 10:0 # 48431
-0.096525867905366324883686957036844 1:1.0388458 2:27 3:1 4:0.10829724 5:3000 6:4 7:1 8:0 9:0 10:0 # 9174
-0.10000000000000000555111512312578 1:0.37676662 2:28 3:0 4:0.11696101 5:3000 6:3 7:0 8:0 9:1 10:0 # 7074
0.010000000000000001942890293094024 1:0.04438483 2:28 3:0 4:0.1362879 5:3000 6:7 7:1 8:0 9:0 10:2 # 96980
0.010000000000000001942890293094024 1:0.66625684 2:31 3:0 4:0.20526491 5:3000 6:3 7:0 8:0 9:0 10:0 # 38156
0.010000000000000001942890293094024 1:0.65486902 2:29 3:0 4:0.22459181 5:3000 6:3 7:0 8:0 9:0 10:0 # 30886
-0.096281121150172177536319395585451 1:0.20379621 2:30 3:0 4:0.0069976668 5:3000 6:2 7:1 8:0 9:1 10:0 # 86702
-0.095724944830945513096764898364199 1:0.39260739 2:29 3:1 4:0.15061647 5:3000 6:2 7:0 8:0 9:0 10:2 # 56336
-0.096600008136135340208738853107207 1:0.59632194 2:26 3:0 4:0.55381542 5:3000 6:9 7:0 8:1 9:0 10:1 # 57073
0.010000000000000001942890293094024 1:0 2:27 3:0 4:0.17327558 5:3000 6:3 7:0 8:0 9:0 10:0 # 11711
0.010000000000000001942890293094024 1:0.99999988 2:30 3:0 4:0.40819725 5:3000 6:5 7:0 8:0 9:2 10:0 # 45849
0.010000000000000001942890293094024 1:0.24793947 2:33 3:1 4:0.19126958 5:3000 6:7 7:0 8:0 9:1 10:0 # 85001
-0.09568995984453765313304529627203 1:0.3194136 2:26 3:1 4:0.0069976668 5:3000 6:2 7:0 8:0 9:0 10:0 # 66099
-0.094753440979287506529260554088978 1:1.1154636 2:31 3:1 4:0.85471511 5:3000 6:6 7:1 8:1 9:2 10:0 # 70743
-0.096133169628623948987922176456777 1:0.65234762 2:26 3:0 4:0.1586138 5:3000 6:3 7:1 8:0 9:1 10:1 # 7857
0.010000000000000001942890293094024 1:0.3487128 2:26 3:0 4:0.45084971 5:3000 6:9 7:0 8:0 9:0 10:0 # 33939
0.010000000000000001942890293094024 1:1.1057885 2:29 3:2 4:0.097967342 5:3000 6:2 7:0 8:0 9:0 10:1 # 49049
0.010000000000000001942890293094024 1:0.80141842 2:28 3:1 4:0.19626792 5:3000 6:5 7:0 8:0 9:2 10:0 # 79131
-0.093007009021550346439255463337759 1:0.86413586 2:26 3:1 4:0.13062313 5:3000 6:6 7:0 8:0 9:2 10:2 # 24986
-0.094883859101695056104119885276305 1:0.90104663 2:27 3:3 4:0.12395868 5:3000 6:8 7:2 8:0 9:0 10:0 # 41956
-0.095517201512781979566568679729244 1:0.99999988 2:42 3:0 4:0 5:3000 6:0 7:0 8:0 9:0 10:2 # 71244
0.010000000000000001942890293094024 1:0.22105072 2:26 3:0 4:0.011996001 5:3000 6:2 7:0 8:0 9:0 10:0 # 12727
0.010000000000000001942890293094024 1:0.51649451 2:27 3:2 4:0.21526158 5:3000 6:3 7:0 8:0 9:0 10:0 # 65519
0.010000000000000001942890293094024 1:0.06528981 2:25 3:0 4:0.097634122 5:3000 6:2 7:0 8:0 9:0 10:1 # 32241
-0.095080922293884873042202343640383 1:0.99999988 2:26 3:0 4:0.053982005 5:3000 6:1 7:0 8:0 9:0 10:0 # 71700
-0.10000000000000000555111512312578 1:1.021978 2:22 3:0 4:0.10963012 5:3000 6:2 7:0 8:0 9:0 10:0 # 12838
-0.094749088940652481660720241052331 1:0.25826287 2:40 3:1 4:0.71809399 5:3000 6:5 7:3 8:2 9:0 10:1 # 2490
0.010000000000000001942890293094024 1:0.69857717 2:25 3:0 4:0.35521492 5:3000 6:4 7:0 8:0 9:1 10:1 # 75874
0.010000000000000001942890293094024 1:0.19699179 2:31 3:0 4:0.046984337 5:3000 6:3 7:0 8:0 9:0 10:3 # 78649
0.010000000000000001942890293094024 1:0.26376313 2:41 3:0 4:0.21159613 5:3000 6:8 7:0 8:0 9:0 10:4 # 9704
-0.096547944078199221529246187856188 1:0.24125113 2:26 3:0 4:0.1346218 5:3000 6:5 7:0 8:0 9:0 10:2 # 80038
-0.093013132206037019145128397212829 1:0.1299658 2:25 3:2 4:0.18293902 5:3000 6:4 7:0 8:0 9:2 10:0 # 96479
-0.095233105110923643721321241173428 1:0.99999988 2:24 3:1 4:0.03665445 5:3000 6:4 7:2 8:0 9:0 10:0 # 90203
0.010000000000000001942890293094024 1:0.99003321 2:23 3:0 4:0.10996334 5:3000 6:2 7:0 8:0 9:0 10:0 # 67257
0.010000000000000001942890293094024 1:0.99999988 2:25 3:0 4:0.12995668 5:3000 6:1 7:0 8:0 9:0 10:0 # 6179
0.010000000000000001942890293094024 1:0.52647352 2:23 3:0 4:0.0049983342 5:3000 6:2 7:0 8:0 9:0 10:0 # 14407
-0.093959286097583860630777508049505 1:0.99999988 2:25 3:0 4:0.097634122 5:3000 6:3 7:0 8:0 9:1 10:4 # 19690
-0.096158246207530218008230349369114 1:0.99999988 2:33 3:0 4:0.6514495 5:3000 6:2 7:2 8:1 9:0 10:3 # 36044
-0.083566469977904400678880847408436 1:0.99999988 2:26 3:0 4:50 5:0 6:2 7:0 8:0 9:0 10:0 # 5587
0.010000000000000001942890293094024 1:0.99999988 2:21 3:0 4:0 5:3000 6:1 7:0 8:0 9:0 10:0 # 69880
0.010000000000000001942890293094024 1:0.19762661 2:25 3:0 4:0.031989336 5:3000 6:6 7:0 8:0 9:0 10:1 # 16254
0.010000000000000001942890293094024 1:0.22625384 2:26 3:0 4:0.53882039 5:3000 6:6 7:0 8:1 9:0 10:1 # 42914
-0.10000000000000000555111512312578 1:0.078434773 2:42 3:0 4:0.25024992 5:3000 6:6 7:0 8:0 9:0 10:0 # 71356
-0.095185144633882390330370526498882 1:0.055560388 2:43 3:2 4:0.49583471 5:3000 6:4 7:0 8:1 9:0 10:1 # 15411
-0.095250600073115698762649117270485 1:0.28354329 2:25 3:0 4:42 5:0 6:3 7:0 8:0 9:0 10:0 # 77471
0.010000000000000001942890293094024 1:0.99999988 2:34 3:0 4:0.38020658 5:3000 6:2 7:2 8:1 9:0 10:4 # 73020
0.010000000000000001942890293094024 1:0.51164883 2:34 3:1 4:0.45851383 5:3000 6:4 7:1 8:0 9:0 10:0 # 58673
0.010000000000000001942890293094024 1:0.05494006 2:27 3:0 4:0.43218926 5:3000 6:9 7:0 8:2 9:0 10:0 # 18259
-0.095289861366707695466971017594915 1:0.66022652 2:35 3:1 4:0.23725425 5:3000 6:3 7:0 8:0 9:1 10:5 # 60647
-0.084565996392936937375850448006531 1:0.99999988 2:41 3:0 4:0.0017137961 5:3500 6:4 7:0 8:0 9:1 10:0 # 61935
-0.097294276061630213803255173843354 1:1.0529912 2:35 3:1 4:0.33419022 5:3500 6:6 7:0 8:0 9:0 10:0 # 72299
0.010000000000000001942890293094024 1:0.27163783 2:42 3:0 4:0.21259581 5:3000 6:5 7:0 8:0 9:0 10:0 # 45320
0.010000000000000001942890293094024 1:0 2:43 3:0 4:0.067310899 5:3000 6:5 7:0 8:0 9:0 10:0 # 24331
0.010000000000000001942890293094024 1:0.17857054 2:42 3:0 4:0.51882708 5:3000 6:7 7:0 8:1 9:0 10:0 # 5961
-0.094940390655089745841621606814442 1:0.78332436 2:44 3:1 4:0.6538974 5:3001 6:8 7:0 8:0 9:0 10:2 # 98434
-0.098128080440844978049597102653934 1:0.14581758 2:45 3:0 4:0.32555816 5:3000 6:9 7:0 8:1 9:0 10:0 # 49770
-0.097975359901469660783845938567538 1:1.062393 2:46 3:1 4:0.29356882 5:3000 6:7 7:0 8:0 9:0 10:0 # 5155
0.010000000000000001942890293094024 1:0.99999988 2:35 3:0 4:0.29391602 5:3500 6:6 7:0 8:0 9:0 10:0 # 2280
0.010000000000000001942890293094024 1:0.69949675 2:35 3:0 4:0.3521851 5:3500 6:7 7:0 8:0 9:0 10:0 # 9514
0.010000000000000001942890293094024 1:0.18135233 2:35 3:1 4:0.50442731 5:3500 6:5 7:0 8:1 9:0 10:0 # 76879
-0.075328709469958399225220091466326 1:0.84090263 2:34 3:0 4:0.19394459 5:3500 6:5 7:0 8:0 9:0 10:0 # 49332
-0.075032967777993953006898664170876 1:0.89428288 2:34 3:0 4:0.2447872 5:3500 6:5 7:0 8:0 9:0 10:1 # 93095
-0.10000000000000000555111512312578 1:0.10402999 2:36 3:0 4:0.21336761 5:3500 6:4 7:1 8:0 9:0 10:0 # 48449
0.010000000000000001942890293094024 1:0.81427574 2:46 3:0 4:0.5481506 5:3000 6:8 7:0 8:0 9:0 10:0 # 67227
0.010000000000000001942890293094024 1:0.0080241561 2:45 3:0 4:0.27757415 5:3000 6:10 7:0 8:1 9:0 10:1 # 90087
0.010000000000000001942890293094024 1:0.84227949 2:45 3:0 4:0.15494835 5:3000 6:7 7:0 8:0 9:0 10:0 # 58462
-0.096653510864268432634105465695029 1:0.67836237 2:35 3:0 4:0.99057412 5:3500 6:8 7:0 8:2 9:0 10:1 # 82465
-0.09445415701409087816387000202667 1:0.64529794 2:45 3:0 4:2.0406532 5:3000 6:12 7:0 8:2 9:0 10:0 # 77781
-0.094237426270951885065585429401835 1:0.46241799 2:43 3:0 4:1.4168611 5:3000 6:12 7:0 8:1 9:0 10:0 # 10437
0.010000000000000001942890293094024 1:0.92766541 2:34 3:1 4:0.18280491 5:3500 6:5 7:0 8:0 9:0 10:1 # 23923
0.010000000000000001942890293094024 1:0.93206793 2:34 3:0 4:0.14081691 5:3500 6:4 7:0 8:0 9:0 10:0 # 90633
0.010000000000000001942890293094024 1:0.99999988 2:34 3:0 4:0.47386461 5:3500 6:5 7:0 8:1 9:0 10:1 # 85297
-0.094209029878014827197318936669035 1:1.0078011 2:34 3:0 4:0.52584976 5:3500 6:4 7:1 8:1 9:0 10:2 # 65666
0.010000000000000001942890293094024 1:0.062201545 2:44 3:0 4:0.26891035 5:3000 6:8 7:0 8:1 9:0 10:0 # 51734
-0.091394626245997256930309049494099 1:0.98200721 2:33 3:1 4:0.24221651 5:3500 6:5 7:1 8:0 9:0 10:0 # 13281
0.010000000000000001942890293094024 1:0 2:36 3:0 4:0.1433876 5:3500 6:5 7:0 8:0 9:0 10:0 # 97527
-0.096426369263354128058551850699587 1:0 2:32 3:0 4:0.44187376 5:3500 6:5 7:0 8:1 9:0 10:2 # 769
-0.094907861119564507212942316982662 1:0.99999988 2:44 3:0 4:0.019223375 5:2600 6:2 7:0 8:0 9:0 10:3 # 30987
0.010000000000000001942890293094024 1:0.035292387 2:41 3:0 4:0.0065695518 5:3500 6:3 7:0 8:0 9:0 10:0 # 65215
0.010000000000000001942890293094024 1:0.75971729 2:34 3:0 4:0.80719793 5:3500 6:9 7:0 8:2 9:0 10:0 # 10156
-0.095096619537238358255137882224517 1:0.73971003 2:28 3:2 4:1.0427144 5:3300 6:8 7:1 8:2 9:1 10:0 # 6847
-0.094542074423838218244497966225026 1:0.99999988 2:42 3:1 4:0.14571318 5:2600 6:1 7:2 8:0 9:0 10:4 # 20956
-0.093862149109946280134408880257979 1:0.77497691 2:46 3:1 4:1.0153282 5:3000 6:10 7:0 8:0 9:5 10:1 # 94874
0.010000000000000001942890293094024 1:0.14261913 2:35 3:0 4:0.19693436 5:3000 6:3 7:0 8:0 9:0 10:4 # 43728
0.010000000000000001942890293094024 1:0.055823155 2:34 3:0 4:0.75521278 5:3500 6:8 7:0 8:1 9:0 10:2 # 54341
0.010000000000000001942890293094024 1:0.027325697 2:42 3:1 4:0.017327556 5:3000 6:7 7:0 8:0 9:1 10:0 # 57164
0.010000000000000001942890293094024 1:0.32581779 2:37 3:1 4:0.16509569 5:3500 6:4 7:0 8:0 9:0 10:0 # 51457
0.010000000000000001942890293094024 1:0.021159576 2:36 3:0 4:0.12053699 5:3500 6:5 7:0 8:0 9:0 10:0 # 33094
-0.094499575788299330914021822991344 1:0.53461635 2:41 3:0 4:0.051985148 5:3500 6:3 7:0 8:0 9:0 10:0 # 92376
-0.095637951058564429906994064367609 1:0.89553523 2:32 3:1 4:0.9083119 5:3500 6:9 7:0 8:2 9:0 10:0 # 42522
-0.09454012551297807931405259296298 1:0.75671536 2:34 3:1 4:1.0502714 5:3500 6:12 7:0 8:2 9:0 10:1 # 86005
0.010000000000000001942890293094024 1:0.14176585 2:31 3:0 4:0.40702656 5:3500 6:6 7:0 8:1 9:0 10:2 # 76217
0.010000000000000001942890293094024 1:0.74309671 2:32 3:0 4:0.10254213 5:3500 6:4 7:0 8:0 9:0 10:1 # 35866
0.010000000000000001942890293094024 1:0.99467021 2:25 3:1 4:43 5:0 6:2 7:0 8:0 9:0 10:0 # 39234
-0.095341008135259697198193862277549 1:0.74472624 2:33 3:0 4:0.37989146 5:3500 6:8 7:0 8:0 9:0 10:5 # 30331
-0.094252363540409334063951973803341 1:0.99163711 2:41 3:4 4:0.35054982 5:3000 6:9 7:0 8:0 9:1 10:1 # 57842
-0.090239871470741653269875826026691 1:0.99999988 2:29 3:0 4:0.39674377 5:3500 6:2 7:2 8:0 9:0 10:0 # 40350
0.010000000000000001942890293094024 1:0.50962466 2:34 3:0 4:0.78434736 5:3500 6:11 7:0 8:2 9:0 10:1 # 24136
0.010000000000000001942890293094024 1:0.71157211 2:42 3:0 4:0.83690375 5:3500 6:3 7:0 8:1 9:0 10:0 # 46676
0.010000000000000001942890293094024 1:0.94897914 2:31 3:0 4:0.73636103 5:3500 6:9 7:0 8:1 9:0 10:0 # 7227
-0.10000000000000000555111512312578 1:0.47082055 2:30 3:0 4:1.1650957 5:3500 6:8 7:0 8:2 9:0 10:0 # 95677
0.010000000000000001942890293094024 1:0.18181096 2:33 3:0 4:0.62096542 5:3500 6:5 7:0 8:1 9:0 10:0 # 94646
-0.094616341994811725690794901311165 1:0 2:31 3:0 4:0.43012288 5:3498 6:10 7:0 8:1 9:0 10:0 # 77992
-0.095224856383862133135664862493286 1:0.54093301 2:30 3:2 4:0.63010567 5:3500 6:12 7:0 8:1 9:0 10:0 # 95734
0.010000000000000001942890293094024 1:0.12664771 2:42 3:0 4:0.74208599 5:3000 6:11 7:0 8:1 9:0 10:1 # 98698
0.010000000000000001942890293094024 1:0.19096181 2:33 3:0 4:0.67352188 5:3500 6:5 7:0 8:1 9:0 10:0 # 96032
-0.095626302778552080274820923477819 1:0.99999988 2:45 3:1 4:0.41673806 5:3500 6:2 7:0 8:1 9:2 10:1 # 29914
-0.09470626979423779623346035805298 1:1.0717987 2:43 3:0 4:0.67410862 5:3000 6:7 7:1 8:1 9:4 10:2 # 45286
-0.097883856530842416887594481522683 1:0.35697132 2:44 3:0 4:0.46615252 5:3500 6:6 7:0 8:0 9:0 10:2 # 10939
0.010000000000000001942890293094024 1:0.45818061 2:30 3:0 4:0.34475863 5:3500 6:8 7:0 8:2 9:0 10:0 # 53034
0.010000000000000001942890293094024 1:0.00051133498 2:31 3:0 4:0.4458726 5:3500 6:7 7:0 8:2 9:0 10:0 # 68762
0.010000000000000001942890293094024 1:0 2:29 3:0 4:0.38903171 5:3500 6:8 7:0 8:1 9:0 10:0 # 24196
-0.09723366171449021599926254566526 1:0.74483168 2:42 3:0 4:0.66777742 5:3000 6:9 7:0 8:2 9:0 10:2 # 73259
-0.094870772325622909626474665856222 1:0.28605491 2:40 3:1 4:0.48283905 5:3000 6:12 7:0 8:1 9:0 10:2 # 7863
-0.094819555979534286827004052611301 1:3.5232384 2:42 3:0 4:0.36321226 5:3000 6:10 7:0 8:0 9:0 10:1 # 96839
0.010000000000000001942890293094024 1:0.045443181 2:43 3:0 4:0.073121965 5:3500 6:6 7:0 8:0 9:0 10:1 # 62219
0.010000000000000001942890293094024 1:0.99999988 2:45 3:1 4:0.34761497 5:3500 6:1 7:1 8:1 9:1 10:1 # 40721
0.010000000000000001942890293094024 1:0.66230345 2:43 3:1 4:0.48557556 5:3500 6:7 7:0 8:0 9:0 10:2 # 41372
-0.093977123985642715964239357617771 1:1.0277209 2:42 3:2 4:0.260497 5:3500 6:5 7:2 8:0 9:1 10:2 # 39810
-0.09399812242658214800350435780274 1:0.99999988 2:41 3:4 4:0.515567 5:3500 6:6 7:0 8:0 9:2 10:3 # 86799
-0.094234104520865336063195627502864 1:0.89144492 2:26 3:0 4:0.30077121 5:3500 6:7 7:4 8:0 9:0 10:0 # 81164
0.010000000000000001942890293094024 1:0.25397214 2:43 3:0 4:0.42552483 5:3000 6:9 7:0 8:1 9:0 10:2 # 17328
0.010000000000000001942890293094024 1:0.82681936 2:40 3:1 4:1.3835388 5:3000 6:13 7:0 8:2 9:0 10:2 # 49252
0.010000000000000001942890293094024 1:0.69162059 2:45 3:0 4:0.22193658 5:3500 6:7 7:0 8:0 9:1 10:2 # 98884
-0.093921148139577192992533127835486 1:0.069055654 2:40 3:4 4:0.43085638 5:3000 6:14 7:0 8:1 9:0 10:0 # 82274
0.010000000000000001942890293094024 1:0.24664436 2:45 3:0 4:0.10996858 5:3500 6:5 7:0 8:0 9:0 10:1 # 1700
-0.09615711353758937818270169373136 1:1.0462791 2:47 3:1 4:1.1043013 5:5416 6:6 7:0 8:2 9:0 10:1 # 163
-0.094852105656871743555313969409326 1:0.94696385 2:35 3:0 4:1593 5:0 6:6 7:0 8:1 9:0 10:1 # 180
0.010000000000000001942890293094024 1:0.95521587 2:41 3:1 4:1.1142952 5:3000 6:9 7:1 8:2 9:0 10:2 # 37415
0.010000000000000001942890293094024 1:0.99999988 2:28 3:0 4:0.20026658 5:3000 6:1 7:0 8:0 9:0 10:0 # 32034
-0.09692271633323901181000792348641 1:0 2:25 3:0 4:0.15289681 5:2916 6:3 7:0 8:0 9:1 10:0 # 186
-0.095094909183019660225966163125122 1:0.78648543 2:44 3:0 4:0.29170957 5:3883 6:7 7:2 8:0 9:2 10:1 # 187
-0.094655761927403658795299179473659 1:0.025892468 2:38 3:0 4:74.5 5:1 6:13 7:0 8:0 9:0 10:2 # 196
0.010000000000000001942890293094024 1:0.68063194 2:33 3:0 4:0.057983432 5:3500 6:4 7:0 8:0 9:0 10:3 # 1844
0.010000000000000001942890293094024 1:1.0327595 2:27 3:0 4:0.1406198 5:3000 6:4 7:0 8:0 9:0 10:1 # 40478
0.010000000000000001942890293094024 1:0.99999988 2:25 3:1 4:50 5:0 6:2 7:1 8:0 9:0 10:1 # 63522
-0.094204058391001765926375810522586 1:0 2:33 3:1 4:0.20822622 5:3500 6:5 7:0 8:0 9:0 10:4 # 23426
-0.095042335144826406434503951459192 1:0.68272734 2:43 3:3 4:0.69110298 5:3000 6:8 7:2 8:2 9:0 10:1 # 39162
-0.094892613377178913758314138249261 1:0.99999988 2:23 3:0 4:53 5:0 6:1 7:0 8:0 9:0 10:0 # 37854
0.010000000000000001942890293094024 1:0.039480262 2:25 3:0 4:0.00068563601 5:2916 6:2 7:0 8:0 9:0 10:0 # 80590
0.010000000000000001942890293094024 1:0.61919451 2:47 3:1 4:0.78013659 5:5416 6:7 7:0 8:2 9:0 10:0 # 66915
0.010000000000000001942890293094024 1:0.53682107 2:25 3:0 4:0.16181009 5:2916 6:4 7:0 8:0 9:0 10:0 # 82720
-0.09566798365846496121633890652447 1:0.85341477 2:47 3:1 4:0.2108178 5:5416 6:8 7:0 8:0 9:0 10:1 # 58199
-0.093990232088378034003284255959443 1:2.0797343 2:28 3:0 4:0.36439267 5:3004 6:1 7:3 8:1 9:0 10:0 # 58576
-0.094328750583471676627311808260856 1:1.9534883 2:38 3:0 4:0.15350014 5:3556 6:5 7:0 8:0 9:0 10:2 # 227
0.010000000000000001942890293094024 1:0.0094800163 2:43 3:0 4:0.22625792 5:3000 6:10 7:0 8:3 9:0 10:2 # 88551
0.010000000000000001942890293094024 1:0.98667556 2:44 3:1 4:0.1916028 5:3000 6:4 7:1 8:1 9:0 10:1 # 10893
0.010000000000000001942890293094024 1:0.28364247 2:34 3:0 4:0.1526158 5:3000 6:6 7:0 8:0 9:0 10:0 # 47581
-0.096282810477117064529295475949766 1:0.99999988 2:33 3:0 4:0.79106963 5:3000 6:7 7:0 8:2 9:0 10:1 # 3652
-0.093768954675796822861855162045686 1:0.99999988 2:44 3:2 4:0.50016659 5:3000 6:3 7:1 8:1 9:2 10:3 # 74767
-0.09462014345067337739436652555014 1:1.0637937 2:46 3:2 4:0.12229257 5:3000 6:2 7:1 8:0 9:1 10:0 # 20343
0.010000000000000001942890293094024 1:0.011024724 2:47 3:0 4:0.14971386 5:5416 6:8 7:0 8:1 9:0 10:2 # 64034
0.010000000000000001942890293094024 1:0.13740458 2:41 3:0 4:0.58047318 5:3000 6:9 7:0 8:1 9:0 10:1 # 81690
0.010000000000000001942890293094024 1:1.0099988 2:47 3:0 4:0.61212927 5:3000 6:6 7:0 8:1 9:0 10:0 # 37689
-0.098979063625046492802539432886988 1:0.99999988 2:47 3:0 4:0.50283241 5:3000 6:6 7:0 8:2 9:0 10:1 # 73836
-0.095202399863151043746256618760526 1:0.22082372 2:46 3:1 4:0.63774914 5:1705 6:5 7:0 8:0 9:0 10:0 # 276
-0.095070305032649238263786628522212 1:0.03719769 2:47 3:0 4:0.03975841 5:25000 6:11 7:0 8:1 9:0 10:3 # 335
0.010000000000000001942890293094024 1:0.62029177 2:39 3:0 4:0.62445849 5:3000 6:11 7:0 8:1 9:0 10:3 # 27451
0.010000000000000001942890293094024 1:0.97926021 2:44 3:0 4:0.71009666 5:3000 6:13 7:0 8:2 9:0 10:1 # 91671
0.010000000000000001942890293094024 1:0.00065788499 2:42 3:0 4:0.2307912 5:3500 6:12 7:0 8:0 9:1 10:0 # 3397
-0.096932022186270061503421402449021 1:0.24145657 2:37 3:1 4:0.80806398 5:3000 6:12 7:0 8:1 9:0 10:2 # 18698
-0.094110201477124344471292261005146 1:0.57058644 2:44 3:2 4:0.92573553 5:3500 6:14 7:0 8:2 9:0 10:0 # 63904
-0.094000735431602144842599955154583 1:0.06120348 2:47 3:2 4:0.51528132 5:3500 6:12 7:0 8:1 9:1 10:0 # 92201
0.010000000000000001942890293094024 1:0.11919404 2:47 3:0 4:0.54748416 5:3000 6:6 7:0 8:2 9:0 10:0 # 18447
0.010000000000000001942890293094024 1:0.40245736 2:36 3:1 4:0.53156239 5:3500 6:7 7:0 8:2 9:0 10:2 # 19655
0.010000000000000001942890293094024 1:0.77865267 2:28 3:0 4:0.30889705 5:3000 6:3 7:0 8:0 9:0 10:3 # 38526
-0.095308678851536599019311779557029 1:0.76846308 2:36 3:0 4:0.066838048 5:3500 6:6 7:1 8:0 9:1 10:3 # 54190
-0.095342196145675628393689748918405 1:0.88037091 2:43 3:0 4:0.46132377 5:7523 6:6 7:0 8:1 9:0 10:1 # 345
-0.093862162036018270683257469499949 1:0.99999988 2:32 3:0 4:0.006731051 5:3416 6:1 7:0 8:0 9:0 10:3 # 469
0.010000000000000001942890293094024 1:0.42555118 2:36 3:0 4:0.93735421 5:3000 6:12 7:0 8:1 9:0 10:2 # 63433
0.010000000000000001942890293094024 1:0.047130775 2:37 3:0 4:0.62845719 5:3000 6:11 7:0 8:1 9:0 10:2 # 7232
0.010000000000000001942890293094024 1:0.30876222 2:38 3:0 4:0.67644119 5:3000 6:13 7:0 8:1 9:0 10:1 # 40415
-0.095714379672140137422786665410968 1:0.9169662 2:35 3:1 4:0.35621458 5:3000 6:14 7:0 8:0 9:0 10:0 # 20691
-0.094107205034205221316767620010069 1:0.3448233 2:36 3:0 4:0.50049984 5:3000 6:17 7:0 8:1 9:0 10:0 # 7812
-0.094935818783443592927540066739311 1:0.57985085 2:42 3:0 4:0.59422433 5:2700 6:8 7:0 8:0 9:0 10:0 # 470
0.010000000000000001942890293094024 1:0.037749141 2:47 3:1 4:0.61868036 5:3500 6:11 7:0 8:2 9:0 10:0 # 93133
0.010000000000000001942890293094024 1:0.65370733 2:30 3:2 4:0.1406198 5:3000 6:6 7:0 8:0 9:1 10:0 # 37411
0.010000000000000001942890293094024 1:0.99999988 2:22 3:0 4:0.11996001 5:3000 6:1 7:1 8:0 9:0 10:0 # 51005
-0.095339193361449803276741477020551 1:0.95802796 2:29 3:3 4:0.26691103 5:3000 6:8 7:0 8:0 9:2 10:0 # 6410
-0.094100235044991875632547362329205 1:0.7486549 2:30 3:2 4:0.17694102 5:3000 6:6 7:3 8:0 9:0 10:0 # 16044
-0.094222569848439796658112754812464 1:0.91314048 2:37 3:2 4:1.6203449 5:4000 6:16 7:0 8:3 9:0 10:1 # 514
0.010000000000000001942890293094024 1:0.535676 2:35 3:0 4:0.80606467 5:3000 6:14 7:0 8:1 9:0 10:0 # 9369
0.010000000000000001942890293094024 1:0.27186912 2:34 3:0 4:0.39620125 5:3000 6:10 7:1 8:1 9:0 10:2 # 70535
0.010000000000000001942890293094024 1:0.086938217 2:43 3:1 4:1.1296234 5:3000 6:5 7:0 8:2 9:0 10:2 # 96959
-0.093785767554975030257935486588394 1:0.64005852 2:39 3:0 4:0.055984557 5:9841 6:9 7:0 8:0 9:0 10:2 # 529
-0.09380221203724359302356106127263 1:0.40234575 2:37 3:0 4:0.33762234 5:12667 6:16 7:0 8:2 9:0 10:3 # 643
-0.096945975147163410134965033648768 1:0.14931442 2:36 3:0 4:0.55832034 5:4500 6:9 7:0 8:3 9:0 10:0 # 655
0.010000000000000001942890293094024 1:0.051537223 2:44 3:0 4:0.023324694 5:2700 6:8 7:0 8:0 9:0 10:0 # 33864
0.010000000000000001942890293094024 1:0.6389581 2:43 3:0 4:0.34921694 5:3000 6:6 7:1 8:0 9:0 10:0 # 30455
0.010000000000000001942890293094024 1:0.088637121 2:40 3:0 4:1.0129957 5:3000 6:7 7:0 8:1 9:0 10:2 # 3735
-0.094466013368382228954089896433288 1:0.99999988 2:46 3:0 4:0.30248055 5:2700 6:5 7:1 8:0 9:0 10:1 # 43382
-0.094988299847020285504584080626955 1:1.2487513 2:33 3:0 4:0.17512032 5:2700 6:3 7:2 8:0 9:0 10:0 # 668
-0.094752693043476110545952906250022 1:0.99076444 2:36 3:2 4:0.36134046 5:4117 6:4 7:0 8:0 9:0 10:1 # 685
0.010000000000000001942890293094024 1:0 2:36 3:0 4:0.45434347 5:4500 6:10 7:0 8:2 9:0 10:0 # 38491
0.010000000000000001942890293094024 1:0.026648901 2:36 3:1 4:0.28215951 5:4500 6:9 7:0 8:2 9:0 10:0 # 74539
0.010000000000000001942890293094024 1:0.32918194 2:36 3:0 4:0.46989557 5:4500 6:9 7:0 8:1 9:0 10:0 # 69232
-0.10000000000000000555111512312578 1:0.47211024 2:36 3:0 4:0.18040435 5:4500 6:10 7:0 8:0 9:0 10:0 # 55537
-0.10000000000000000555111512312578 1:0.22140254 2:34 3:0 4:0.32037324 5:4500 6:12 7:0 8:1 9:0 10:0 # 15560
-0.10000000000000000555111512312578 1:0.97367543 2:35 3:0 4:0.57987112 5:4500 6:5 7:0 8:2 9:0 10:1 # 28262
0.010000000000000001942890293094024 1:0.14400643 2:46 3:0 4:0.32136247 5:2700 6:4 7:0 8:1 9:0 10:0 # 40627
0.010000000000000001942890293094024 1:0.53823626 2:46 3:0 4:1.7107631 5:3000 6:10 7:0 8:1 9:0 10:0 # 25173
0.010000000000000001942890293094024 1:0.98828685 2:46 3:0 4:0.53948683 5:3000 6:9 7:0 8:2 9:0 10:1 # 37217
-0.095819138511611279263036067277426 1:0.99999988 2:46 3:0 4:0.63272864 5:2700 6:3 7:1 8:1 9:1 10:0 # 15807
-0.093768068487244060627006092545344 1:0.97967345 2:43 3:2 4:0.54313219 5:2700 6:4 7:1 8:2 9:3 10:0 # 26463
-0.094480268486569429775556727690855 1:1.2472838 2:37 3:2 4:0.73001778 5:4503 6:7 7:1 8:2 9:3 10:1 # 92623
0.010000000000000001942890293094024 1:0.28556561 2:34 3:0 4:0.20351033 5:4500 6:12 7:0 8:0 9:0 10:0 # 23255
0.010000000000000001942890293094024 1:0.04252734 2:37 3:0 4:0.19573428 5:4500 6:10 7:0 8:0 9:0 10:0 # 7814
0.010000000000000001942890293094024 1:0.99999988 2:35 3:0 4:0.47433904 5:4500 6:6 7:1 8:2 9:0 10:1 # 69089
-0.096147407085241387569851667649345 1:0.89182675 2:32 3:0 4:0.19217952 5:4500 6:11 7:0 8:0 9:0 10:2 # 96809
-0.093952879671521549731494360457873 1:0.67774087 2:35 3:1 4:0.17907132 5:4500 6:6 7:2 8:0 9:1 10:3 # 19038
-0.097733913665959071259692336752778 1:0.87402201 2:33 3:0 4:0.26994002 5:4500 6:6 7:0 8:0 9:0 10:3 # 14889
0.010000000000000001942890293094024 1:0.31797579 2:34 3:0 4:0.29793379 5:4500 6:11 7:0 8:2 9:0 10:0 # 122
0.010000000000000001942890293094024 1:0.96385455 2:36 3:0 4:0.46856254 5:4500 6:5 7:0 8:1 9:0 10:1 # 75576
0.010000000000000001942890293094024 1:0.94442225 2:35 3:0 4:0.37036213 5:4500 6:5 7:0 8:1 9:0 10:0 # 14942
-0.095957370910877637371072523819748 1:0.99999988 2:33 3:1 4:0.26616308 5:4500 6:4 7:0 8:1 9:0 10:0 # 63729
-0.095186138554761989816199729830259 1:1.0066445 2:36 3:0 4:0.0019995561 5:4500 6:1 7:0 8:0 9:0 10:3 # 57591
-0.096107106884587012451959253667155 1:0.073747858 2:40 3:1 4:0.12797156 5:4500 6:6 7:1 8:0 9:0 10:0 # 16965
0.010000000000000001942890293094024 1:1.0071654 2:34 3:0 4:0.50433236 5:4500 6:6 7:0 8:1 9:0 10:3 # 80345
0.010000000000000001942890293094024 1:0.44829777 2:34 3:0 4:0.15241058 5:4500 6:7 7:0 8:0 9:0 10:3 # 55505
0.010000000000000001942890293094024 1:0.38220224 2:32 3:0 4:0.43679184 5:4500 6:11 7:0 8:1 9:0 10:1 # 99884
-0.09685181814454046911322393498267 1:0.81310862 2:30 3:0 4:0.30015552 5:4500 6:11 7:0 8:0 9:0 10:0 # 88728
-0.095203685957873318557176389731467 1:0.87995231 2:31 3:0 4:1.0095534 5:4500 6:13 7:0 8:1 9:0 10:2 # 92990
-0.093771744673812995607420361920958 1:0.75784677 2:31 3:1 4:1.0304377 5:4500 6:13 7:0 8:3 9:1 10:1 # 96791
0.010000000000000001942890293094024 1:1.0274862 2:35 3:1 4:0.013552544 5:4500 6:1 7:0 8:0 9:0 10:2 # 21231
0.010000000000000001942890293094024 1:0.001027128 2:39 3:0 4:0.19240169 5:4500 6:6 7:0 8:0 9:0 10:0 # 51847
0.010000000000000001942890293094024 1:0.22884278 2:35 3:0 4:0.84936678 5:4500 6:13 7:0 8:1 9:1 10:0 # 51254
-0.094655241656118493942528857587604 1:0.98766869 2:39 3:5 4:0.69127917 5:5010 6:14 7:0 8:2 9:0 10:2 # 740
-0.094374466140496715560459506377811 1:1.257485 2:26 3:0 4:0.12980501 5:1794 6:1 7:2 8:0 9:1 10:0 # 794
-0.094784308889875101833411008556141 1:0 2:44 3:0 4:6046 5:0 6:9 7:0 8:3 9:0 10:0 # 848
0.010000000000000001942890293094024 1:0.15518752 2:29 3:0 4:0.81737393 5:4500 6:11 7:0 8:1 9:0 10:0 # 88013
0.010000000000000001942890293094024 1:0.91372663 2:30 3:1 4:0.22128417 5:4500 6:10 7:0 8:0 9:0 10:1 # 59863
0.010000000000000001942890293094024 1:0.037880126 2:29 3:1 4:0.2577205 5:4500 6:10 7:0 8:0 9:0 10:0 # 48693
-0.090258067106663397716204144671792 1:0.44865191 2:27 3:1 4:0.075538769 5:4500 6:6 7:0 8:0 9:0 10:0 # 67652
-0.089836760615949917685441050707595 1:0.99999988 2:28 3:1 4:0.11575206 5:4500 6:5 7:0 8:0 9:0 10:0 # 37187
-0.093894326333027189335211915022228 1:0.71976006 2:47 3:0 4:64 5:0 6:2 7:2 8:0 9:0 10:0 # 851
0.010000000000000001942890293094024 1:0.047848307 2:32 3:0 4:0.20973118 5:4500 6:4 7:0 8:0 9:0 10:0 # 80803
0.010000000000000001942890293094024 1:0.14310923 2:34 3:0 4:1.088647 5:4500 6:3 7:0 8:1 9:0 10:0 # 91749
0.010000000000000001942890293094024 1:0.034868233 2:46 3:0 4:0.078087501 5:5416 6:7 7:0 8:0 9:0 10:0 # 88455
-0.094970900253595558204722237860551 1:0.55598146 2:44 3:0 4:0.22572905 5:5417 6:6 7:1 8:0 9:0 10:1 # 33315
-0.096691412776857665889451709517743 1:0.77087152 2:31 3:2 4:0.15174405 5:4500 6:5 7:0 8:0 9:0 10:1 # 40090
-0.10000000000000000555111512312578 1:0.68610829 2:31 3:0 4:0.42035103 5:4500 6:7 7:0 8:2 9:0 10:0 # 25461
0.010000000000000001942890293094024 1:0.61787736 2:27 3:0 4:0.25483227 5:4500 6:5 7:0 8:0 9:0 10:0 # 40261
0.010000000000000001942890293094024 1:0 2:27 3:0 4:0 5:4500 6:5 7:0 8:0 9:0 10:0 # 557
0.010000000000000001942890293094024 1:0.24067593 2:26 3:0 4:0.2561653 5:4500 6:6 7:0 8:0 9:0 10:0 # 91527
-0.095600463630845067264374392834725 1:0.99999988 2:27 3:1 4:0.10842035 5:4500 6:2 7:1 8:0 9:0 10:1 # 35254
-0.094617882228564043067819966381649 1:0.51435304 2:39 3:0 4:0.98440886 5:2308 6:15 7:0 8:1 9:0 10:1 # 922
-0.097097577049758965195280779880704 1:0.87824547 2:40 3:0 4:0.18141723 5:3400 6:5 7:0 8:0 9:0 10:1 # 989
0.010000000000000001942890293094024 1:0.44727328 2:31 3:0 4:0.49500111 5:4500 6:6 7:0 8:2 9:0 10:0 # 77401
0.010000000000000001942890293094024 1:0.12326811 2:31 3:0 4:0.31704065 5:4500 6:7 7:0 8:1 9:0 10:0 # 91817
0.010000000000000001942890293094024 1:0.96909416 2:30 3:1 4:0.16929571 5:4500 6:5 7:0 8:0 9:0 10:1 # 61798
-0.095306860862902520459272182051791 1:0.22874291 2:38 3:2 4:3558 5:0 6:19 7:0 8:3 9:0 10:2 # 992
-0.095312567257117453145554009097395 1:0.017558727 2:47 3:0 4:0.53540176 5:2513 6:10 7:1 8:1 9:0 10:0 # 1017
-0.095253980420493933323200508311857 1:0.54651386 2:35 3:0 4:0.93824255 5:8500 6:17 7:0 8:4 9:0 10:2 # 1030
0.010000000000000001942890293094024 1:0.066757329 2:39 3:0 4:0.12408115 5:3400 6:5 7:0 8:0 9:0 10:2 # 86034
0.010000000000000001942890293094024 1:0 2:40 3:0 4:0.29579535 5:3400 6:4 7:0 8:0 9:0 10:0 # 66728
0.010000000000000001942890293094024 1:0 2:41 3:0 4:0.30197001 5:3400 6:5 7:0 8:1 9:0 10:1 # 7818
-0.095273346331901764827421175141353 1:1.4047936 2:41 3:0 4:0.43810645 5:3400 6:3 7:0 8:1 9:0 10:0 # 38145
-0.096618647573401772454815272794804 1:0.93085533 2:39 3:1 4:0.89238459 5:3400 6:9 7:0 8:2 9:0 10:2 # 47744
-0.09497175722690254229263473462197 1:0.99200159 2:45 3:0 4:0.28079978 5:3400 6:7 7:0 8:0 9:0 10:0 # 22913
0.010000000000000001942890293094024 1:0.59264034 2:28 3:0 4:0.15352143 5:4500 6:7 7:0 8:0 9:0 10:0 # 57322
0.010000000000000001942890293094024 1:0.99999988 2:27 3:2 4:0.15818708 5:4500 6:2 7:1 8:0 9:1 10:0 # 29544
0.010000000000000001942890293094024 1:0.48767489 2:29 3:0 4:0.14285715 5:4500 6:5 7:0 8:0 9:0 10:0 # 38108
-0.093924307543154950117525459063472 1:1.3255814 2:28 3:0 4:0.063763611 5:4500 6:2 7:1 8:0 9:2 10:0 # 28987
-0.09573889956944514612047214541235 1:0.99999988 2:35 3:1 4:0.90091151 5:3400 6:6 7:0 8:2 9:0 10:0 # 1600
-0.094526105224508882862721748097101 1:0.89368773 2:35 3:0 4:0.20640987 5:3400 6:2 7:1 8:0 9:0 10:4 # 9019
0.010000000000000001942890293094024 1:0.80748892 2:39 3:0 4:0.49573654 5:3400 6:9 7:0 8:1 9:0 10:2 # 70172
0.010000000000000001942890293094024 1:0.004384689 2:39 3:1 4:0.35989416 5:3400 6:10 7:0 8:1 9:0 10:2 # 9112
0.010000000000000001942890293094024 1:0.63391513 2:44 3:0 4:0.5242576 5:3400 6:7 7:0 8:1 9:0 10:1 # 56589
-0.092232770849598466611496405676007 1:0.82956058 2:34 3:1 4:0.24818796 5:4000 6:6 7:0 8:1 9:0 10:2 # 1045
-0.099039944207801378084354837483261 1:0.00073798001 2:41 3:0 4:0.49312672 5:4000 6:4 7:0 8:1 9:0 10:2 # 1085
-0.094848438332098661263103167584632 1:0.99999988 2:41 3:0 4:219 5:0 6:1 7:2 8:0 9:1 10:0 # 1092
0.010000000000000001942890293094024 1:0.22009929 2:35 3:0 4:0.58835638 5:3400 6:7 7:0 8:2 9:0 10:0 # 68350
0.010000000000000001942890293094024 1:0.11217757 2:26 3:0 4:0.025772052 5:4500 6:2 7:0 8:0 9:0 10:1 # 5254
0.010000000000000001942890293094024 1:0.72902369 2:31 3:0 4:0.81581873 5:4500 6:9 7:0 8:2 9:0 10:0 # 79252
-0.09458241811600975879059660655912 1:0.11878256 2:33 3:1 4:0.2558071 5:3400 6:8 7:0 8:0 9:2 10:0 # 45541
-0.095316301647853873824089987465413 1:0.9027971 2:45 3:3 4:2788 5:0 6:8 7:2 8:1 9:2 10:0 # 1168
-0.093255448618479008793258344667265 1:0.087649405 2:27 3:0 4:0.0099954568 5:2200 6:2 7:0 8:0 9:1 10:1 # 1187
0.010000000000000001942890293094024 1:0.40416932 2:41 3:0 4:0.21319669 5:4000 6:3 7:0 8:1 9:0 10:2 # 42971
0.010000000000000001942890293094024 1:0.99999988 2:34 3:0 4:0.20369908 5:4000 6:6 7:0 8:0 9:0 10:2 # 76885
0.010000000000000001942890293094024 1:0.97376627 2:34 3:0 4:0.31817046 5:4000 6:5 7:0 8:0 9:0 10:2 # 19816
-0.099725380315025868860345781286014 1:0.98021847 2:36 3:1 4:0.073731564 5:4000 6:4 7:0 8:0 9:0 10:1 # 78706
-0.097847726519855293680905106157297 1:0.99999988 2:40 3:1 4:0.1259685 5:4000 6:2 7:0 8:0 9:0 10:0 # 62884
-0.099994004823508175761048732965719 1:0.75206614 2:32 3:0 4:0.062734313 5:4000 6:3 7:0 8:0 9:0 10:1 # 13407
0.010000000000000001942890293094024 1:0.15705061 2:27 3:0 4:0.20626988 5:2200 6:3 7:0 8:0 9:0 10:0 # 88297
0.010000000000000001942890293094024 1:0.24845597 2:41 3:0 4:0.13171707 5:4000 6:5 7:0 8:0 9:0 10:1 # 7668
0.010000000000000001942890293094024 1:0.01519848 2:35 3:0 4:0.2824294 5:4000 6:6 7:0 8:2 9:0 10:2 # 61782
-0.10000000000000000555111512312578 1:0.99999988 2:26 3:0 4:0.16855974 5:2200 6:3 7:1 8:0 9:0 10:0 # 36833
-0.095780946079138451487722250021761 1:0.99999988 2:27 3:2 4:0.27532938 5:2200 6:3 7:0 8:0 9:1 10:0 # 16269
-0.10000000000000000555111512312578 1:0.57368529 2:34 3:0 4:0.36040989 5:4000 6:5 7:0 8:2 9:0 10:0 # 88135
0.010000000000000001942890293094024 1:0.99999988 2:36 3:1 4:0.13146713 5:4000 6:3 7:0 8:0 9:0 10:2 # 34177
0.010000000000000001942890293094024 1:0.99999988 2:37 3:0 4:0.20444889 5:4000 6:4 7:0 8:0 9:0 10:1 # 6775
0.010000000000000001942890293094024 1:0.87516499 2:40 3:0 4:0.3024244 5:4000 6:2 7:0 8:0 9:0 10:1 # 67711
-0.097048996356261629792072653799551 1:0.45861655 2:35 3:0 4:0.013746563 5:4000 6:2 7:1 8:0 9:0 10:3 # 26658
-0.093345059046491596355110686999978 1:0.8794241 2:36 3:1 4:0.37940514 5:4000 6:3 7:1 8:1 9:1 10:1 # 75365
-0.098062066861178354137962287495611 1:0.99999988 2:38 3:0 4:1.1164709 5:4000 6:5 7:0 8:2 9:0 10:2 # 67641
0.010000000000000001942890293094024 1:0.99999988 2:26 3:0 4:0.14902318 5:2200 6:3 7:0 8:0 9:0 10:0 # 80283
0.010000000000000001942890293094024 1:0.99394125 2:27 3:2 4:0.18582462 5:2200 6:3 7:0 8:0 9:0 10:1 # 16543
0.010000000000000001942890293094024 1:0.011572498 2:33 3:0 4:0.17845538 5:4000 6:5 7:0 8:1 9:0 10:0 # 8882
-0.095701992466325380704006420273799 1:1.2460732 2:33 3:2 4:0.16495876 5:4000 6:5 7:1 8:0 9:0 10:0 # 80763
-0.094852296646562028747950989782112 1:0.066617116 2:36 3:0 4:1.4013996 5:4000 6:7 7:0 8:4 9:0 10:1 # 27235
-0.099313996489829525771142471057829 1:0 2:29 3:1 4:0.11222172 5:2200 6:5 7:0 8:0 9:0 10:0 # 79276
0.010000000000000001942890293094024 1:0.99999988 2:35 3:0 4:0.2784304 5:4000 6:2 7:2 8:0 9:0 10:3 # 77701
0.010000000000000001942890293094024 1:0.10891885 2:31 3:0 4:0.067733064 5:4000 6:2 7:0 8:0 9:0 10:1 # 31951
0.010000000000000001942890293094024 1:0.03325133 2:38 3:0 4:0.42539364 5:4000 6:5 7:0 8:1 9:0 10:2 # 98105
-0.10000000000000000555111512312578 1:0.97014928 2:31 3:0 4:0.001249688 5:4000 6:1 7:0 8:0 9:0 10:0 # 82529
-0.094855634091437823762760217505274 1:1.0818363 2:35 3:1 4:0.064733818 5:4000 6:2 7:3 8:0 9:1 10:2 # 24527
-0.090361903015727440546811521926429 1:0.99999988 2:31 3:0 4:0 5:4000 6:0 7:1 8:0 9:0 10:1 # 34036
0.010000000000000001942890293094024 1:0.6815744 2:29 3:1 4:0.56292593 5:2200 6:5 7:0 8:1 9:0 10:0 # 21689
0.010000000000000001942890293094024 1:0.96403807 2:29 3:1 4:0.26351658 5:2200 6:6 7:0 8:0 9:0 10:0 # 612
0.010000000000000001942890293094024 1:0.99999988 2:33 3:2 4:0.21269682 5:4000 6:4 7:0 8:0 9:0 10:0 # 23755
-0.092394827812015578594184717076132 1:0.99999988 2:28 3:2 4:0.27033168 5:2200 6:7 7:1 8:0 9:0 10:0 # 14684
0.010000000000000001942890293094024 1:0.99999988 2:30 3:0 4:0.008247938 5:4000 6:1 7:0 8:0 9:0 10:0 # 15166
-0.09525039327450501858152165368665 1:0.096733578 2:24 3:0 4:0.049977284 5:2200 6:5 7:0 8:0 9:0 10:0 # 81913
-0.093756606415897447703855505096726 1:1.0829171 2:27 3:1 4:0.18627897 5:2200 6:7 7:0 8:0 9:0 10:1 # 72728
0.010000000000000001942890293094024 1:0.48500231 2:32 3:0 4:0.023494126 5:4000 6:1 7:0 8:0 9:0 10:0 # 53038
0.010000000000000001942890293094024 1:0.99999988 2:30 3:0 4:0.057985503 5:4000 6:1 7:0 8:0 9:0 10:0 # 89998
-0.095297420023036871761235033773119 1:0.99999988 2:29 3:1 4:0.012496876 5:4000 6:1 7:0 8:0 9:0 10:1 # 51046
-0.09280600143606176910537897128961 1:0 2:28 3:0 4:0.011997001 5:4000 6:1 7:1 8:0 9:0 10:0 # 86789
-0.09380098818964099915973520182888 1:0.99999988 2:42 3:0 4:0 5:4000 6:1 7:0 8:0 9:2 10:2 # 22107
0.010000000000000001942890293094024 1:0.99999988 2:32 3:0 4:0 5:4000 6:0 7:0 8:0 9:0 10:0 # 29329
0.010000000000000001942890293094024 1:0.99999988 2:32 3:0 4:0.13271682 5:4000 6:1 7:0 8:0 9:0 10:1 # 774
0.010000000000000001942890293094024 1:0 2:33 3:0 4:0.13971508 5:4000 6:3 7:0 8:0 9:0 10:0 # 42133
-0.10000000000000000555111512312578 1:0.99999988 2:33 3:0 4:0.0019995 5:4000 6:0 7:0 8:0 9:0 10:0 # 34453
-0.10000000000000000555111512312578 1:0.99999988 2:32 3:0 4:0.12096976 5:4000 6:8 7:0 8:0 9:0 10:0 # 83548
-0.097239571322410456311047255439917 1:0.99999988 2:30 3:0 4:0.05088596 5:2200 6:2 7:1 8:0 9:0 10:0 # 28360
0.010000000000000001942890293094024 1:0.40443856 2:28 3:0 4:0.10372407 5:4000 6:2 7:0 8:0 9:0 10:0 # 53854
0.010000000000000001942890293094024 1:0.56662422 2:27 3:0 4:0.023244189 5:4000 6:1 7:0 8:0 9:0 10:0 # 6691
0.010000000000000001942890293094024 1:0.29763982 2:27 3:1 4:0.22181818 5:2199 6:7 7:0 8:0 9:0 10:0 # 81667
-0.092633276721355350957765040220693 1:0.99999988 2:27 3:0 4:0 5:4000 6:0 7:1 8:0 9:0 10:0 # 84054
-0.095259585140599511987602454610169 1:0 2:26 3:2 4:0 5:4000 6:1 7:0 8:0 9:0 10:0 # 19292
-0.097634096572228656896186294034123 1:0.0083664926 2:26 3:0 4:0.12039982 5:2200 6:9 7:0 8:0 9:0 10:0 # 17406
0.010000000000000001942890293094024 1:0.26237378 2:32 3:0 4:0.23244189 5:4000 6:8 7:0 8:0 9:0 10:0 # 3535
0.010000000000000001942890293094024 1:0.39870876 2:32 3:0 4:0.27618095 5:4000 6:8 7:0 8:0 9:0 10:1 # 15079
0.010000000000000001942890293094024 1:0.14634433 2:31 3:0 4:0.17370658 5:4000 6:8 7:0 8:0 9:0 10:0 # 2439
-0.095654359129214716617184421920683 1:0 2:33 3:1 4:0.096725821 5:4000 6:8 7:0 8:0 9:1 10:0 # 65038
-0.096017295935210911217438933817903 1:0 2:32 3:1 4:0.50287426 5:4000 6:10 7:0 8:1 9:0 10:1 # 29759
-0.10000000000000000555111512312578 1:0.33872759 2:30 3:0 4:0.49837542 5:4000 6:10 7:0 8:1 9:0 10:0 # 54299
0.010000000000000001942890293094024 1:0.37654004 2:26 3:0 4:0.095865518 5:2200 6:9 7:0 8:0 9:0 10:1 # 94614
0.010000000000000001942890293094024 1:0.99999988 2:31 3:0 4:0 5:2200 6:2 7:0 8:0 9:0 10:0 # 15467
0.010000000000000001942890293094024 1:0.99999988 2:30 3:0 4:0.25352111 5:2200 6:3 7:0 8:0 9:0 10:0 # 52673
-0.10000000000000000555111512312578 1:0.99999988 2:25 3:0 4:0.15421145 5:4000 6:3 7:0 8:0 9:0 10:0 # 81372
-0.10000000000000000555111512312578 1:0.41858143 2:26 3:0 4:0.1459635 5:4000 6:4 7:1 8:0 9:0 10:0 # 54445
-0.097298854273602630726713869080413 1:0 2:29 3:0 4:0.71732068 5:4000 6:7 7:0 8:1 9:0 10:2 # 34768
0.010000000000000001942890293094024 1:0.19943312 2:30 3:0 4:0.54486376 5:4000 6:10 7:0 8:1 9:0 10:0 # 77514
0.010000000000000001942890293094024 1:0.03815189 2:29 3:0 4:0.34191453 5:4000 6:10 7:0 8:1 9:0 10:0 # 61728
0.010000000000000001942890293094024 1:0.94046384 2:30 3:0 4:0.43514121 5:4000 6:10 7:0 8:0 9:0 10:0 # 15295
-0.10000000000000000555111512312578 1:0.64227736 2:28 3:0 4:0.64583856 5:4000 6:9 7:0 8:1 9:0 10:0 # 30210
-0.094545738662326406220870467222994 1:0.36380681 2:29 3:1 4:0.42614347 5:4000 6:10 7:0 8:0 9:1 10:0 # 41856
-0.096459430108522314917252060695319 1:0.79314083 2:43 3:1 4:0.43164209 5:4000 6:7 7:1 8:1 9:1 10:1 # 48912
0.010000000000000001942890293094024 1:0.39860022 2:26 3:0 4:0.11172207 5:4000 6:4 7:0 8:0 9:0 10:0 # 26835
0.010000000000000001942890293094024 1:0.98671097 2:26 3:0 4:0.11697076 5:4000 6:3 7:0 8:0 9:0 10:0 # 35384
0.010000000000000001942890293094024 1:0.047190562 2:25 3:0 4:0.003249188 5:4000 6:3 7:0 8:0 9:0 10:0 # 36097
-0.095557287017146275154289014608366 1:0.48887777 2:25 3:1 4:0.18220446 5:4000 6:7 7:0 8:0 9:1 10:1 # 87216
-0.094924775844557607307194757595425 1:2.275717 2:29 3:1 4:0.064483881 5:4000 6:5 7:0 8:0 9:0 10:0 # 56944
-0.094371193502401307107163574983133 1:0.33689734 2:28 3:2 4:0.54561359 5:4000 6:14 7:0 8:2 9:0 10:0 # 76429
0.010000000000000001942890293094024 1:0 2:28 3:0 4:0.61859536 5:4000 6:9 7:0 8:2 9:0 10:0 # 18129
0.010000000000000001942890293094024 1:0.53921348 2:29 3:0 4:0.49687579 5:4000 6:9 7:0 8:1 9:0 10:0 # 52308
0.010000000000000001942890293094024 1:0.99999988 2:31 3:0 4:0.097975507 5:4000 6:2 7:1 8:0 9:0 10:0 # 30878
-0.094784323749730892139098159532296 1:1.0104302 2:32 3:1 4:0.31349388 5:2200 6:5 7:1 8:0 9:2 10:4 # 6444
-0.095233754238367218647454137681052 1:0 2:27 3:1 4:0.11386386 5:3995 6:3 7:0 8:0 9:0 10:2 # 54944
-0.094039098000830656509663185715908 1:0 2:36 3:0 4:0.15767825 5:4375 6:7 7:0 8:0 9:0 10:2 # 1201
0.010000000000000001942890293094024 1:0.99999988 2:24 3:0 4:0.1032242 5:4000 6:2 7:0 8:0 9:0 10:0 # 11074
0.010000000000000001942890293094024 1:0.087560274 2:29 3:0 4:0.1732067 5:4000 6:7 7:0 8:0 9:0 10:1 # 18851
0.010000000000000001942890293094024 1:0.11048533 2:41 3:1 4:0.17095727 5:4000 6:3 7:0 8:0 9:0 10:0 # 71887
-0.094854941763003353116801008582115 1:0.99999988 2:23 3:0 4:0.010747313 5:4000 6:0 7:1 8:0 9:0 10:0 # 32471
-0.093974069344417210380981941852951 1:1.1651132 2:29 3:3 4:0.18945263 5:4000 6:7 7:2 8:0 9:0 10:1 # 96199
-0.093862034486741574568213763996027 1:0.88708097 2:45 3:0 4:0.48227552 5:4710 6:4 7:0 8:1 9:1 10:2 # 1261
0.010000000000000001942890293094024 1:0.96471107 2:24 3:0 4:0.18491594 5:2200 6:6 7:0 8:0 9:0 10:1 # 79673
0.010000000000000001942890293094024 1:0.99999988 2:40 3:2 4:0.12396901 5:4000 6:1 7:0 8:0 9:0 10:1 # 68006
0.010000000000000001942890293094024 1:0.24264869 2:27 3:0 4:0.12446889 5:4000 6:8 7:0 8:0 9:0 10:0 # 56977
-0.10000000000000000555111512312578 1:0.82048917 2:26 3:0 4:0.47538117 5:4000 6:8 7:0 8:1 9:0 10:0 # 8812
-0.094521473432825575677895812987117 1:0.99999988 2:40 3:1 4:0.111972 5:4000 6:1 7:4 8:0 9:0 10:1 # 35363
-0.10000000000000000555111512312578 1:0.04119176 2:31 3:0 4:0.26136932 5:2000 6:3 7:0 8:0 9:0 10:0 # 1268
0.010000000000000001942890293094024 1:0.85888076 2:25 3:1 4:0.067983001 5:4000 6:4 7:0 8:0 9:0 10:0 # 89765
0.010000000000000001942890293094024 1:0.056748182 2:32 3:1 4:0.85653585 5:4000 6:10 7:1 8:1 9:1 10:0 # 3059
0.010000000000000001942890293094024 1:0.44428486 2:25 3:1 4:0.059735067 5:4000 6:6 7:0 8:0 9:0 10:0 # 36871
-0.095163497868136270874117599305464 1:0.94167054 2:32 3:3 4:0.18795301 5:4000 6:10 7:0 8:0 9:1 10:0 # 5775
-0.094208687091917986400346762820845 1:0.96503496 2:35 3:0 4:0.062791631 5:7500 6:2 7:0 8:1 9:1 10:2 # 1278
-0.094104911137882329974502226832556 1:0.99999988 2:34 3:0 4:0.25425652 5:6166 6:5 7:1 8:1 9:1 10:2 # 1297
0.010000000000000001942890293094024 1:0.023247095 2:31 3:0 4:0.32183909 5:2000 6:3 7:0 8:0 9:0 10:0 # 7607
0.010000000000000001942890293094024 1:0 2:31 3:0 4:0 5:2000 6:3 7:0 8:0 9:0 10:0 # 39782
0.010000000000000001942890293094024 1:1.0099933 2:31 3:0 4:0.037981007 5:2000 6:3 7:0 8:0 9:0 10:0 # 59802
-0.09879283885233014483873148492421 1:1.4621514 2:30 3:0 4:0.080959521 5:2000 6:3 7:1 8:0 9:0 10:0 # 80426
-0.10000000000000000555111512312578 1:0.2720457 2:28 3:0 4:0.015492254 5:2000 6:3 7:1 8:0 9:0 10:0 # 31284
-0.092969149640035775306046161858831 1:1.095726 2:32 3:2 4:0.81659168 5:2000 6:5 7:1 8:0 9:1 10:0 # 84517
0.010000000000000001942890293094024 1:1.0369908 2:26 3:0 4:0.68957758 5:4000 6:9 7:0 8:1 9:0 10:0 # 60231
0.010000000000000001942890293094024 1:0.97336286 2:43 3:0 4:0.51812047 5:4000 6:7 7:0 8:1 9:0 10:1 # 65959
0.010000000000000001942890293094024 1:0.81422693 2:28 3:1 4:0.22544365 5:4000 6:10 7:1 8:0 9:0 10:0 # 80978
-0.096490018526474874427378836116986 1:0.85017061 2:43 3:0 4:0.50537366 5:4000 6:9 7:1 8:1 9:0 10:2 # 95401
-0.097433457554461311289628611120861 1:0.12691578 2:45 3:0 4:1.2594352 5:4000 6:6 7:0 8:2 9:0 10:3 # 45973
-0.096697380435480373428447364858584 1:0.45453462 2:44 3:0 4:1.0752312 5:4000 6:8 7:0 8:1 9:0 10:4 # 74158
0.010000000000000001942890293094024 1:0.0026894701 2:28 3:0 4:0.00049975002 5:2000 6:3 7:0 8:0 9:0 10:0 # 72520
0.010000000000000001942890293094024 1:0 2:30 3:0 4:0 5:2000 6:3 7:0 8:0 9:0 10:0 # 56936
0.010000000000000001942890293094024 1:0.053247336 2:31 3:1 4:0.12393803 5:2000 6:3 7:0 8:0 9:0 10:0 # 7467
-0.098817427182185779699352679017466 1:0 2:27 3:1 4:0.17941029 5:2000 6:5 7:0 8:0 9:1 10:0 # 70463
-0.087535630047529289221586168423528 1:1.0347861 2:25 3:0 4:0.07796102 5:2000 6:4 7:0 8:0 9:0 10:0 # 61715
-0.10000000000000000555111512312578 1:0.46090534 2:28 3:1 4:0.024487756 5:2000 6:7 7:0 8:0 9:0 10:0 # 90667
0.010000000000000001942890293094024 1:0.001478229 2:32 3:0 4:0.0049975011 5:2000 6:3 7:0 8:0 9:0 10:0 # 70676
0.010000000000000001942890293094024 1:0.097404785 2:31 3:0 4:0.15492254 5:2000 6:4 7:0 8:0 9:0 10:0 # 93672
0.010000000000000001942890293094024 1:0.16273491 2:31 3:0 4:0.11694153 5:2000 6:2 7:0 8:0 9:0 10:0 # 86670
-0.099999999789946891759484515205259 1:0.97183096 2:35 3:0 4:0.33033484 5:2000 6:4 7:0 8:0 9:1 10:0 # 86666
-0.094249002476188059596040602627909 1:0.99999988 2:30 3:0 4:0.015108425 5:5625 6:2 7:0 8:0 9:0 10:1 # 1300
-0.09393177800654317621820155181922 1:0.98307824 2:42 3:0 4:0.88447011 5:4500 6:17 7:0 8:2 9:0 10:2 # 1312
0.010000000000000001942890293094024 1:0.49244714 2:28 3:1 4:0.15742129 5:2000 6:6 7:0 8:0 9:0 10:0 # 52319
0.010000000000000001942890293094024 1:0.99999988 2:24 3:0 4:0.0039980011 5:2000 6:4 7:0 8:0 9:0 10:0 # 21301
0.010000000000000001942890293094024 1:0.86271375 2:25 3:0 4:0.27436283 5:2000 6:3 7:0 8:0 9:0 10:0 # 27282
-0.068655583916626738982813549228013 1:0.95009983 2:24 3:0 4:0.038480759 5:2000 6:4 7:0 8:0 9:0 10:0 # 84368
-0.08612259927576504381363520224113 1:0.99620074 2:23 3:0 4:0.07796102 5:2000 6:3 7:0 8:0 9:0 10:0 # 67957
-0.083480403681377990388057241943898 1:0.89608312 2:23 3:0 4:0.04147926 5:2000 6:3 7:1 8:0 9:1 10:0 # 68023
0.010000000000000001942890293094024 1:0.96900207 2:35 3:0 4:0.30284858 5:2000 6:4 7:0 8:0 9:0 10:0 # 60926
0.010000000000000001942890293094024 1:0 2:28 3:0 4:0.18040979 5:2000 6:7 7:0 8:0 9:0 10:0 # 44577
0.010000000000000001942890293094024 1:0.89752567 2:27 3:1 4:0.24037981 5:2000 6:7 7:0 8:0 9:0 10:0 # 11768
-0.10000000000000000555111512312578 1:0.89748967 2:28 3:0 4:0.77611196 5:2000 6:8 7:0 8:0 9:0 10:0 # 4928
-0.096844592684156016737517802539514 1:0.097744815 2:29 3:0 4:0.88055974 5:2000 6:7 7:0 8:2 9:0 10:0 # 40022
-0.095018716402310854363122416543774 1:0.99999988 2:26 3:2 4:0.42428786 5:2000 6:3 7:1 8:0 9:0 10:0 # 57956
0.010000000000000001942890293094024 1:0.39724416 2:25 3:0 4:0.29485258 5:2000 6:5 7:0 8:0 9:0 10:0 # 917
0.010000000000000001942890293094024 1:0.88705647 2:24 3:0 4:0.043978009 5:2000 6:3 7:0 8:0 9:0 10:0 # 99471
0.010000000000000001942890293094024 1:0.07422471 2:26 3:1 4:0.34782609 5:2000 6:5 7:0 8:0 9:0 10:0 # 73297
-0.094822383821613454024657130503329 1:0.26827985 2:26 3:0 4:0.59070462 5:2000 6:6 7:0 8:2 9:0 10:0 # 50291
-0.094818937267762692933104062831262 1:1.1745503 2:34 3:2 4:0.19090454 5:2000 6:3 7:1 8:0 9:0 10:0 # 49811
-0.096762162616404689963189866830362 1:0.27181879 2:25 3:1 4:0.011994003 5:2000 6:1 7:1 8:0 9:1 10:0 # 40501
0.010000000000000001942890293094024 1:0.36559266 2:28 3:0 4:0.41379312 5:2000 6:8 7:0 8:1 9:0 10:0 # 83511
0.010000000000000001942890293094024 1:0.90371275 2:29 3:1 4:0.1724138 5:2000 6:7 7:1 8:0 9:0 10:0 # 62812
0.010000000000000001942890293094024 1:0.029661722 2:30 3:0 4:1.195902 5:2000 6:6 7:0 8:2 9:0 10:0 # 57282
-0.097392455524767274077646561636357 1:1.002997 2:38 3:0 4:0.80759621 5:2000 6:5 7:0 8:0 9:0 10:0 # 97593
-0.096323592566089244471072561282199 1:0.57432234 2:32 3:0 4:0.46026987 5:2000 6:8 7:0 8:0 9:0 10:1 # 5482
-0.095208912511950516410763611929724 1:0.42882326 2:32 3:0 4:0.53073466 5:2000 6:10 7:0 8:0 9:0 10:0 # 47830
0.010000000000000001942890293094024 1:0.77048063 2:44 3:0 4:0.71507126 5:4000 6:8 7:0 8:2 9:0 10:3 # 87274
0.010000000000000001942890293094024 1:0.27858844 2:44 3:0 4:0.56210947 5:4000 6:8 7:0 8:2 9:0 10:3 # 15156
0.010000000000000001942890293094024 1:0.35280189 2:22 3:0 4:0.2063968 5:2000 6:4 7:0 8:0 9:0 10:0 # 37455
-0.096740585921445076955649255978642 1:0.98656213 2:46 3:0 4:0.91177207 5:4000 6:9 7:1 8:2 9:0 10:1 # 65874
-0.095672234123201360667110293434234 1:0.68554646 2:47 3:0 4:0.52986753 5:4000 6:11 7:0 8:1 9:1 10:2 # 70732
-0.094620968922309978133000640809769 1:0.61702585 2:26 3:0 4:0.16091281 5:3417 6:5 7:0 8:0 9:0 10:0 # 1339
0.010000000000000001942890293094024 1:0.72132915 2:38 3:0 4:0.82858568 5:2000 6:6 7:0 8:1 9:0 10:0 # 25479
0.010000000000000001942890293094024 1:0 2:23 3:0 4:0.10594703 5:2000 6:2 7:0 8:0 9:0 10:0 # 23097
0.010000000000000001942890293094024 1:0.21187082 2:33 3:0 4:0.15992004 5:2000 6:8 7:0 8:0 9:0 10:0 # 47905
-0.10000000000000000555111512312578 1:0.94811201 2:39 3:0 4:0.82358819 5:2000 6:7 7:0 8:0 9:0 10:0 # 61605
-0.10000000000000000555111512312578 1:1.4051896 2:22 3:1 4:0.013493253 5:2000 6:1 7:0 8:0 9:0 10:0 # 18172
-0.095459112691974268294359262654325 1:0.99999988 2:37 3:1 4:0.36031985 5:2000 6:10 7:0 8:0 9:1 10:0 # 45610
0.010000000000000001942890293094024 1:0.77740282 2:37 3:0 4:0.092953525 5:2000 6:4 7:0 8:0 9:0 10:0 # 12903
0.010000000000000001942890293094024 1:0.99999988 2:25 3:0 4:0.25387305 5:2000 6:1 7:0 8:0 9:1 10:0 # 51798
0.010000000000000001942890293094024 1:0.62351906 2:46 3:0 4:0.74156463 5:4000 6:10 7:0 8:2 9:0 10:2 # 21461
-0.10000000000000000555111512312578 1:0.99999988 2:27 3:0 4:0 5:2000 6:0 7:1 8:0 9:1 10:0 # 87670
-0.095257732697346386707693000062136 1:0 2:45 3:0 4:0.73306674 5:4000 6:11 7:0 8:3 9:0 10:0 # 8561
-0.096928402032672278387792630383046 1:0.82644117 2:38 3:0 4:0.65368038 5:5800 6:9 7:0 8:1 9:0 10:2 # 1401
0.010000000000000001942890293094024 1:0.58685511 2:39 3:0 4:0.31484258 5:2000 6:7 7:0 8:0 9:0 10:0 # 18628
0.010000000000000001942890293094024 1:0.99999988 2:22 3:0 4:0.066466764 5:2000 6:1 7:0 8:0 9:0 10:0 # 83331
0.010000000000000001942890293094024 1:0.99999988 2:23 3:1 4:0.0029985011 5:2000 6:1 7:0 8:0 9:0 10:0 # 53745
-0.095351284490324927922699771443149 1:0.26314676 2:40 3:0 4:0.57871062 5:2000 6:10 7:0 8:1 9:0 10:0 # 77588
-0.094948414742645037556201259576483 1:0 2:41 3:1 4:0.52668417 5:8000 6:4 7:1 8:2 9:1 10:1 # 1423
-0.089291702510684634042092966410564 1:0.99999988 2:42 3:0 4:31 5:0 6:0 7:2 8:0 9:0 10:0 # 1512
0.010000000000000001942890293094024 1:0.42182693 2:38 3:0 4:0.36476469 5:5800 6:9 7:0 8:1 9:0 10:1 # 3841
0.010000000000000001942890293094024 1:0.99999988 2:27 3:0 4:0 5:2000 6:0 7:0 8:0 9:0 10:0 # 27797
0.010000000000000001942890293094024 1:0.99999988 2:26 3:0 4:0 5:2000 6:0 7:1 8:0 9:0 10:0 # 41375
-0.095618183034738124526086266996572 1:0.64147645 2:39 3:1 4:0.62385798 5:5800 6:11 7:0 8:1 9:0 10:0 # 41929
-0.10000000000000000555111512312578 1:0.40648741 2:35 3:0 4:0.33925185 5:5800 6:6 7:0 8:1 9:0 10:0 # 77544
-0.093415375468139050241234144777991 1:0.44803983 2:39 3:0 4:0.22599551 5:5800 6:13 7:0 8:1 9:1 10:0 # 41670
0.010000000000000001942890293094024 1:0.99667776 2:21 3:1 4:0.0059970012 5:2000 6:2 7:0 8:0 9:0 10:0 # 66962
0.010000000000000001942890293094024 1:0.062913388 2:39 3:1 4:0.60319841 5:2000 6:10 7:0 8:1 9:0 10:0 # 17446
0.010000000000000001942890293094024 1:0.78782123 2:46 3:0 4:0.72831792 5:4000 6:6 7:0 8:2 9:0 10:4 # 85781
-0.094874076420385144992053483292693 1:0.82579356 2:40 3:2 4:0.95552224 5:2000 6:9 7:0 8:0 9:0 10:2 # 95231
-0.094681876991884350580619411630323 1:0.99083483 2:47 3:0 4:0.15346164 5:4000 6:7 7:0 8:0 9:0 10:6 # 6319
-0.09583389307287981662142328787013 1:0.57914239 2:42 3:0 4:1.0537838 5:5800 6:6 7:0 8:1 9:0 10:0 # 33150
0.010000000000000001942890293094024 1:0.38690996 2:34 3:0 4:0.42337528 5:5800 6:6 7:0 8:1 9:0 10:0 # 31376
0.010000000000000001942890293094024 1:0 2:31 3:0 4:0.4327836 5:2000 6:9 7:0 8:1 9:0 10:0 # 829
0.010000000000000001942890293094024 1:0.0084611773 2:36 3:1 4:0.1784108 5:2000 6:10 7:0 8:0 9:0 10:0 # 98653
-0.097686737043805149660613551532151 1:0.75984806 2:31 3:1 4:0.18962248 5:5800 6:7 7:0 8:0 9:0 10:0 # 51850
-0.10000000000000000555111512312578 1:0.60274655 2:42 3:0 4:0.2606087 5:9166 6:4 7:0 8:0 9:0 10:1 # 1581
-0.10000000000000000555111512312578 1:0.98333889 2:27 3:0 4:0.10680825 5:1600 6:9 7:0 8:0 9:0 10:0 # 1615
0.010000000000000001942890293094024 1:0 2:42 3:0 4:0.16617824 5:5800 6:6 7:0 8:0 9:0 10:0 # 18715
0.010000000000000001942890293094024 1:0.72588998 2:40 3:0 4:0.57541806 5:5800 6:10 7:0 8:1 9:0 10:0 # 71434
0.010000000000000001942890293094024 1:0.96719348 2:26 3:0 4:0.25393653 5:4000 6:7 7:0 8:0 9:0 10:0 # 66876
-0.096007122729254490423045353963971 1:0 2:46 3:0 4:0.12928805 5:5800 6:6 7:0 8:1 9:0 10:0 # 91921
-0.093771588283908635652608154487098 1:0.92250556 2:45 3:0 4:0.50161403 5:12700 6:11 7:0 8:4 9:0 10:1 # 1649
-0.093990952416977635586192718619714 1:0.53741711 2:38 3:1 4:2748 5:0 6:5 7:3 8:1 9:3 10:0 # 1731
0.010000000000000001942890293094024 1:0.36432505 2:42 3:0 4:0.31769583 5:9165 6:5 7:0 8:1 9:0 10:2 # 35387
0.010000000000000001942890293094024 1:0.62861562 2:27 3:0 4:0.12117427 5:1600 6:9 7:0 8:0 9:0 10:0 # 7364
0.010000000000000001942890293094024 1:0.028626012 2:31 3:0 4:0.063437335 5:5800 6:7 7:0 8:0 9:0 10:0 # 65791
0.010000000000000001942890293094024 1:0.072771363 2:45 3:0 4:0.08515773 5:5800 6:6 7:0 8:0 9:0 10:0 # 75143
0.010000000000000001942890293094024 1:0.001417069 2:36 3:0 4:0.11308395 5:5800 6:5 7:0 8:0 9:0 10:0 # 36000
0.010000000000000001942890293094024 1:0.0058560302 2:47 3:0 4:0.28081366 5:5800 6:7 7:0 8:2 9:0 10:0 # 58522
0.010000000000000001942890293094024 1:0.95386821 2:47 3:0 4:0.86678332 5:4000 6:12 7:0 8:1 9:0 10:3 # 75314
0.010000000000000001942890293094024 1:0.11686689 2:30 3:0 4:0.3064234 5:4000 6:6 7:0 8:1 9:0 10:3 # 18440
0.010000000000000001942890293094024 1:0.15872413 2:25 3:0 4:0.57021487 5:2000 6:7 7:0 8:1 9:0 10:0 # 86767
0.010000000000000001942890293094024 1:0.99999988 2:31 3:0 4:0.28817797 5:4000 6:4 7:0 8:0 9:0 10:0 # 96922
0.010000000000000001942890293094024 1:0.99999988 2:27 3:1 4:0.23671059 5:2200 6:2 7:1 8:0 9:0 10:0 # 38827
0.010000000000000001942890293094024 1:0.38647938 2:32 3:0 4:0.50462383 5:4000 6:9 7:0 8:2 9:0 10:1 # 59421
-0.09617786289273910771413511611172 1:0.63896179 2:30 3:0 4:0.56464708 5:1600 6:10 7:0 8:0 9:0 10:0 # 75700
0.010000000000000001942890293094024 1:0.045369741 2:47 3:0 4:0.013445958 5:5800 6:7 7:0 8:0 9:0 10:0 # 33796
0.010000000000000001942890293094024 1:0.87605703 2:36 3:0 4:0.19341493 5:5800 6:6 7:0 8:0 9:0 10:1 # 58162
-0.094578500801644538320545052556554 1:0.41968161 2:31 3:0 4:0.03824044 5:4000 6:5 7:0 8:0 9:1 10:2 # 72031
-0.10000000000000000555111512312578 1:0.4790419 2:28 3:0 4:0.0095411176 5:2200 6:1 7:0 8:0 9:0 10:0 # 53428
-0.094244600697605651618005140335299 1:0.6849336 2:30 3:2 4:0.56535864 5:4000 6:5 7:1 8:1 9:2 10:3 # 56147
0.010000000000000001942890293094024 1:1.0711857 2:26 3:0 4:0.23288356 5:2000 6:4 7:1 8:0 9:0 10:1 # 24770
0.010000000000000001942890293094024 1:0.54805571 2:35 3:0 4:0.47263184 5:4000 6:5 7:0 8:2 9:0 10:1 # 35987
0.010000000000000001942890293094024 1:0.34758726 2:42 3:0 4:0.27443138 5:4000 6:9 7:0 8:0 9:0 10:2 # 86723
-0.09367526297789607880872608802747 1:0.44167975 2:46 3:3 4:0.56135964 5:4000 6:14 7:0 8:1 9:0 10:3 # 89596
-0.094816273751523794111051302024862 1:0.98251456 2:39 3:4 4:0.071997382 5:9166 6:6 7:1 8:0 9:1 10:2 # 35395
0.010000000000000001942890293094024 1:0.75277978 2:45 3:0 4:0.27857265 5:5800 6:6 7:0 8:0 9:0 10:0 # 18913
-0.094390083170037164528309858724242 1:0.20958084 2:27 3:0 4:0.38030985 5:2000 6:3 7:1 8:0 9:1 10:2 # 70095
-0.094540711594277238027927978691878 1:0.99999988 2:26 3:0 4:0.20589705 5:2000 6:3 7:3 8:0 9:0 10:0 # 28762
-0.096117131151042811687545963650336 1:0.95691055 2:42 3:1 4:0.35441139 5:4000 6:10 7:0 8:0 9:0 10:0 # 67747
0.010000000000000001942890293094024 1:0.14520843 2:28 3:0 4:0.01272149 5:2200 6:1 7:0 8:0 9:0 10:0 # 37878
0.010000000000000001942890293094024 1:0.99999988 2:28 3:0 4:0 5:2200 6:0 7:0 8:0 9:0 10:0 # 92098
0.010000000000000001942890293094024 1:0.31696263 2:31 3:0 4:0.467208 5:1600 6:11 7:0 8:0 9:0 10:0 # 15681
-0.10000000000000000555111512312578 1:0.8965826 2:29 3:0 4:0.15178014 5:1600 6:6 7:0 8:0 9:0 10:0 # 83178
-0.097158180772725422080782209377503 1:0.90508151 2:45 3:0 4:0.83813137 5:5800 6:7 7:0 8:2 9:0 10:0 # 87380
-0.097975425763212387053613383613992 1:0.76147211 2:46 3:0 4:0.4945699 5:5800 6:7 7:0 8:1 9:0 10:2 # 27965
-0.09090284540869486562542078900151 1:0.49919704 2:37 3:0 4:0.30446166 5:9166 6:4 7:0 8:1 9:0 10:0 # 12911
0.010000000000000001942890293094024 1:0.99999988 2:27 3:0 4:0.45221737 5:1600 6:8 7:0 8:0 9:0 10:1 # 7091
0.010000000000000001942890293094024 1:0.31371698 2:41 3:1 4:0.22694327 5:4000 6:11 7:0 8:0 9:0 10:0 # 20090
0.010000000000000001942890293094024 1:0.59584272 2:43 3:0 4:0.48937765 5:4000 6:11 7:0 8:0 9:0 10:0 # 79310
-0.096790850440156339651309735927498 1:0.3863776 2:39 3:0 4:1.2891777 5:4000 6:13 7:0 8:2 9:0 10:2 # 13803
-0.093838790988589049213430826057447 1:0.90903604 2:37 3:0 4:0.90077478 5:4000 6:12 7:0 8:0 9:0 10:2 # 36869
-0.095241447894392705642019336664816 1:1.0121646 2:37 3:3 4:0.33366659 5:4000 6:11 7:0 8:0 9:0 10:2 # 86649
0.010000000000000001942890293094024 1:0.076452598 2:29 3:0 4:0.18800749 5:1600 6:6 7:0 8:0 9:0 10:0 # 63845
0.010000000000000001942890293094024 1:0.51406527 2:45 3:0 4:0.64833647 5:5800 6:7 7:0 8:2 9:0 10:1 # 24543
0.010000000000000001942890293094024 1:0.68798655 2:29 3:1 4:0.10243598 5:1600 6:6 7:0 8:0 9:0 10:0 # 60003
-0.10000000000000000555111512312578 1:0.99999988 2:29 3:0 4:0.0068707061 5:1600 6:2 7:0 8:0 9:0 10:0 # 52544
-0.10000000000000000555111512312578 1:0.99999988 2:23 3:0 4:0.20237352 5:1600 6:5 7:0 8:0 9:1 10:0 # 85509
-0.094353921777777682855514740367653 1:0.31188053 2:35 3:2 4:0.726421 5:1600 6:11 7:2 8:0 9:1 10:2 # 14341
0.010000000000000001942890293094024 1:0.14790654 2:40 3:0 4:0.83304173 5:4000 6:13 7:0 8:1 9:0 10:2 # 50351
0.010000000000000001942890293094024 1:0.56689382 2:45 3:0 4:0.31098086 5:5800 6:7 7:0 8:0 9:0 10:2 # 50315
0.010000000000000001942890293094024 1:0.078052849 2:39 3:0 4:0.58435392 5:4000 6:13 7:0 8:1 9:0 10:3 # 68187
-0.093931950062137836710007832152769 1:0.99999988 2:27 3:98 4:0 5:2700 6:0 7:98 8:0 9:98 10:0 # 1734
-0.094651045563469371479925484891282 1:0.76882076 2:25 3:1 4:0.56958473 5:1781 6:6 7:0 8:0 9:0 10:0 # 1771
-0.093748880741621354317771874775644 1:0.97880846 2:47 3:1 4:0.42841908 5:3750 6:5 7:4 8:0 9:0 10:1 # 1797
0.010000000000000001942890293094024 1:0 2:29 3:0 4:0 5:1600 6:2 7:0 8:0 9:0 10:0 # 47629
0.010000000000000001942890293094024 1:1.0132891 2:28 3:0 4:0.10243598 5:1600 6:2 7:0 8:0 9:0 10:0 # 43177
0.010000000000000001942890293094024 1:0.089820363 2:23 3:0 4:0.29481575 5:1600 6:5 7:0 8:0 9:0 10:0 # 29793
-0.094473476968369940465208856039681 1:0.99999988 2:43 3:1 4:0.2404747 5:1600 6:3 7:4 8:0 9:0 10:0 # 99748
-0.094248317395285607922517101542326 1:0.56330144 2:35 3:0 4:0.99585658 5:5550 6:22 7:0 8:2 9:0 10:2 # 99728
-0.04796621996795935594093407416949 1:0.99999988 2:27 3:0 4:0 5:0 6:0 7:0 8:0 9:0 10:0 # 99719
-0.093647912879221695270359759888379 1:0.97857243 2:38 3:1 4:1.0846922 5:1900 6:5 7:0 8:1 9:0 10:1 # 99711
-0.094155290523765811094847322237911 1:0.99999988 2:32 3:0 4:0.056805272 5:4400 6:1 7:0 8:0 9:0 10:1 # 99672
0.010000000000000001942890293094024 1:0.24627931 2:32 3:0 4:0.4712548 5:6000 6:8 7:0 8:1 9:0 10:1 # 99754
0.010000000000000001942890293094024 1:0.24408893 2:46 3:0 4:0.030984508 5:2000 6:1 7:0 8:0 9:1 10:0 # 99745
0.010000000000000001942890293094024 1:0.067464419 2:40 3:0 4:0.20029548 5:4737 6:2 7:0 8:1 9:0 10:2 # 99742
0.010000000000000001942890293094024 1:0.28252006 2:34 3:0 4:0.10741548 5:7335 6:6 7:0 8:0 9:0 10:0 # 99741
0.010000000000000001942890293094024 1:0.66343355 2:40 3:0 4:0.67060775 5:4820 6:13 7:0 8:1 9:0 10:2 # 99739
-0.10000000000000000555111512312578 1:0.87325025 2:30 3:0 4:0.50374937 5:6000 6:9 7:0 8:1 9:0 10:0 # 36051
-0.097654361707216308374768232170027 1:0.58484149 2:46 3:0 4:0.66416794 5:2000 6:3 7:0 8:0 9:0 10:1 # 73697
-0.10000000000000000555111512312578 1:0.59973472 2:34 3:0 4:0.12064656 5:6000 6:6 7:0 8:0 9:0 10:1 # 56564
0.010000000000000001942890293094024 1:0.99999988 2:27 3:0 4:0 5:0 6:0 7:0 8:0 9:0 10:0 # 85877
0.010000000000000001942890293094024 1:0.99999988 2:28 3:0 4:0 5:0 6:0 7:0 8:0 9:0 10:0 # 239
-0.079777321628136110831519545172341 1:0.99999988 2:28 3:0 4:0 5:0 6:0 7:0 8:0 9:0 10:0 # 67459
-0.033314379531963589364806921366835 1:0.99999988 2:27 3:0 4:0 5:0 6:0 7:0 8:0 9:0 10:0 # 44824
-0.082525970539043203011431160120992 1:0.99999988 2:28 3:0 4:0 5:0 6:0 7:1 8:0 9:0 10:0 # 7329
0.010000000000000001942890293094024 1:0.16996117 2:34 3:0 4:0.14330944 5:6000 6:6 7:0 8:0 9:0 10:0 # 42304
0.010000000000000001942890293094024 1:0.067636095 2:30 3:0 4:0.37193802 5:6000 6:9 7:0 8:2 9:0 10:0 # 69029
0.010000000000000001942890293094024 1:0.0013999071 2:47 3:0 4:0.07646177 5:2000 6:3 7:0 8:0 9:0 10:1 # 57039
0.010000000000000001942890293094024 1:0.99999988 2:28 3:0 4:0 5:0 6:0 7:0 8:0 9:0 10:0 # 7723
-0.095782874358949721127487464400474 1:0.99999988 2:32 3:1 4:0.8581903 5:6000 6:6 7:0 8:2 9:0 10:3 # 50419
-0.098926219844796103863870939676417 1:0 2:24 3:1 4:0 5:1600 6:2 7:0 8:0 9:0 10:0 # 98277
-0.094377731148100441060933007975109 1:0.99999988 2:45 3:0 4:0 5:2000 6:0 7:3 8:0 9:0 10:0 # 50139
0.010000000000000001942890293094024 1:0.99999988 2:28 3:0 4:0 5:0 6:0 7:1 8:0 9:0 10:0 # 52801
0.010000000000000001942890293094024 1:0.99999988 2:27 3:0 4:0 5:0 6:1 7:0 8:0 9:0 10:0 # 35448
0.010000000000000001942890293094024 1:0.99999988 2:28 3:0 4:0 5:0 6:1 7:0 8:0 9:0 10:0 # 31955
-0.083762862533416915233885902125621 1:0.99999988 2:28 3:0 4:0 5:1 6:0 7:0 8:0 9:0 10:1 # 35992
0.010000000000000001942890293094024 1:0.023443557 2:34 3:0 4:0.089318447 5:6000 6:5 7:0 8:0 9:0 10:2 # 36729
0.010000000000000001942890293094024 1:0.38533521 2:25 3:0 4:0.056214865 5:1600 6:2 7:0 8:0 9:0 10:0 # 83973
0.010000000000000001942890293094024 1:0.46800396 2:30 3:0 4:0.28761873 5:6000 6:10 7:0 8:0 9:0 10:0 # 74657
-0.096032782817823236776177964202361 1:0.98960102 2:34 3:1 4:0.19130145 5:6000 6:5 7:0 8:0 9:1 10:3 # 67780
-0.10000000000000000555111512312578 1:0.99999988 2:30 3:0 4:0 5:0 6:1 7:0 8:0 9:0 10:0 # 9648
-0.08999145625901339151653246517526 1:0.87446505 2:24 3:0 4:0.24172392 5:1600 6:2 7:2 8:0 9:0 10:0 # 82338
0.010000000000000001942890293094024 1:0.99999988 2:26 3:0 4:0 5:0 6:0 7:0 8:0 9:0 10:0 # 56315
0.010000000000000001942890293094024 1:0.99999988 2:26 3:0 4:0 5:0 6:0 7:0 8:0 9:0 10:0 # 79996
-0.10000000000000000555111512312578 1:0.99999988 2:26 3:0 4:0 5:0 6:0 7:1 8:0 9:0 10:0 # 60205
-0.10000000000000000555111512312578 1:0.087018542 2:25 3:0 4:1 5:0 6:1 7:0 8:0 9:0 10:0 # 84625
-0.10000000000000000555111512312578 1:0.99999988 2:24 3:0 4:0 5:0 6:0 7:1 8:0 9:0 10:0 # 19173
0.010000000000000001942890293094024 1:0.99999988 2:30 3:0 4:0 5:0 6:1 7:0 8:0 9:0 10:0 # 74364
0.010000000000000001942890293094024 1:0.99999988 2:29 3:0 4:0 5:0 6:0 7:0 8:0 9:0 10:0 # 332
0.010000000000000001942890293094024 1:0.99999988 2:29 3:0 4:0 5:0 6:0 7:0 8:0 9:0 10:0 # 1670
0.010000000000000001942890293094024 1:0.99999988 2:26 3:0 4:0 5:0 6:0 7:0 8:0 9:0 10:0 # 87170
-0.052301233869288844824385620313478 1:0.99999988 2:31 3:0 4:0 5:0 6:0 7:0 8:0 9:0 10:0 # 12075
0.010000000000000001942890293094024 1:0.99999988 2:24 3:0 4:0 5:0 6:0 7:1 8:0 9:0 10:0 # 26500
0.010000000000000001942890293094024 1:0.17607974 2:25 3:0 4:1 5:0 6:1 7:0 8:0 9:0 10:0 # 2763
0.010000000000000001942890293094024 1:0.99999988 2:25 3:0 4:0 5:0 6:0 7:1 8:0 9:0 10:0 # 34203
-0.10000000000000000555111512312578 1:0.99999988 2:23 3:0 4:0 5:0 6:0 7:1 8:0 9:0 10:0 # 94829
-0.077808414157346295070283304085024 1:0.99999988 2:24 3:0 4:3 5:0 6:1 7:0 8:0 9:0 10:0 # 28675
0.010000000000000001942890293094024 1:0.99999988 2:31 3:0 4:0 5:0 6:0 7:0 8:0 9:0 10:0 # 19453
0.010000000000000001942890293094024 1:0.99999988 2:32 3:0 4:0 5:0 6:0 7:0 8:0 9:0 10:0 # 53658
0.010000000000000001942890293094024 1:0.99999988 2:31 3:0 4:0 5:0 6:0 7:0 8:0 9:0 10:0 # 95439
-0.022640481643490861785039669484831 1:0.99999988 2:32 3:0 4:0 5:0 6:0 7:0 8:0 9:0 10:0 # 91241
-0.094310418703063447765089222230017 1:0.99999988 2:33 3:0 4:0 5:0 6:0 7:0 8:0 9:0 10:0 # 28063
-0.087928849446265888722962245083181 1:0.99999988 2:32 3:0 4:0 5:0 6:0 7:1 8:0 9:0 10:0 # 24688
0.010000000000000001942890293094024 1:0.99999988 2:26 3:0 4:0 5:0 6:0 7:2 8:0 9:0 10:0 # 57780
0.010000000000000001942890293094024 1:0.21556886 2:24 3:0 4:3 5:0 6:1 7:0 8:0 9:0 10:0 # 61316
0.010000000000000001942890293094024 1:0.0067993202 2:25 3:0 4:2 5:0 6:1 7:0 8:0 9:0 10:0 # 20198
-0.020933708053683108829545744811185 1:0.99999988 2:31 3:0 4:0 5:0 6:0 7:0 8:0 9:0 10:0 # 62065
-0.10000000000000000555111512312578 1:0.070422538 2:23 3:0 4:4 5:0 6:1 7:0 8:0 9:0 10:0 # 98908
-0.098040366565120870556704346654442 1:0.99999988 2:30 3:1 4:0 5:0 6:0 7:1 8:0 9:0 10:0 # 27313
0.010000000000000001942890293094024 1:0.99999988 2:32 3:0 4:0 5:0 6:0 7:0 8:0 9:0 10:0 # 55910
0.010000000000000001942890293094024 1:0.99999988 2:32 3:0 4:0 5:0 6:0 7:1 8:0 9:0 10:0 # 26506
-0.10000000000000000555111512312578 1:0.99999988 2:28 3:0 4:0 5:0 6:0 7:4 8:0 9:0 10:0 # 68718
-0.09464918174945502471473446348682 1:0.8810761 2:28 3:0 4:0.26195633 5:6000 6:12 7:0 8:0 9:2 10:0 # 92266
-0.098602739971537345375907079869648 1:0.52024186 2:35 3:0 4:0.43392769 5:6000 6:10 7:0 8:1 9:0 10:1 # 66008
0.010000000000000001942890293094024 1:0.99999988 2:33 3:0 4:0 5:0 6:0 7:0 8:0 9:0 10:0 # 97810
0.010000000000000001942890293094024 1:0.99999988 2:34 3:0 4:0 5:0 6:0 7:0 8:0 9:0 10:0 # 11581
0.010000000000000001942890293094024 1:0.99999988 2:33 3:0 4:0 5:0 6:1 7:0 8:0 9:0 10:0 # 20485
0.010000000000000001942890293094024 1:0.04359673 2:24 3:0 4:1 5:0 6:1 7:0 8:0 9:0 10:0 # 15659
0.010000000000000001942890293094024 1:0.99999988 2:28 3:0 4:0 5:0 6:0 7:3 8:0 9:0 10:0 # 7238
-0.093437407618951695553732861299068 1:0.99999988 2:34 3:0 4:0 5:0 6:0 7:1 8:0 9:0 10:1 # 43863
-0.088611292190281631953041596716503 1:0.99999988 2:32 3:1 4:0 5:0 6:1 7:0 8:0 9:0 10:0 # 78815
0.010000000000000001942890293094024 1:0.99999988 2:32 3:0 4:0 5:0 6:0 7:1 8:0 9:0 10:0 # 37072
0.010000000000000001942890293094024 1:0.99999988 2:23 3:0 4:0 5:0 6:0 7:2 8:0 9:0 10:0 # 83473
-0.10000000000000000555111512312578 1:0.99999988 2:36 3:0 4:0 5:0 6:0 7:0 8:0 9:0 10:0 # 15908
-0.10000000000000000555111512312578 1:0 2:35 3:0 4:0 5:0 6:2 7:1 8:0 9:0 10:0 # 75294
-0.10000000000000000555111512312578 1:0.99999988 2:36 3:0 4:0 5:0 6:0 7:2 8:0 9:0 10:0 # 12012
0.010000000000000001942890293094024 1:0.99999988 2:24 3:0 4:0 5:0 6:0 7:2 8:0 9:0 10:0 # 6971
0.010000000000000001942890293094024 1:0.99999988 2:23 3:0 4:0 5:0 6:0 7:0 8:0 9:0 10:0 # 7492
0.010000000000000001942890293094024 1:0.99999988 2:28 3:0 4:0 5:0 6:0 7:2 8:0 9:0 10:0 # 95889
0.010000000000000001942890293094024 1:0.032282859 2:24 3:0 4:1 5:0 6:1 7:0 8:0 9:0 10:0 # 38761
-0.08695638422371310127800825284794 1:0.87609816 2:36 3:0 4:0.08081986 5:6000 6:2 7:0 8:0 9:1 10:1 # 85269
0.010000000000000001942890293094024 1:0.99999988 2:36 3:0 4:0 5:0 6:0 7:0 8:0 9:0 10:0 # 8061
-0.10000000000000000555111512312578 1:0.99999988 2:37 3:0 4:0 5:0 6:0 7:0 8:0 9:0 10:0 # 31297
-0.10000000000000000555111512312578 1:0.99999988 2:39 3:0 4:0 5:0 6:0 7:0 8:0 9:0 10:0 # 87196
-0.09999999997987440991664698231034 1:0.81625354 2:37 3:0 4:0.81436425 5:6000 6:5 7:0 8:2 9:0 10:3 # 47940
0.010000000000000001942890293094024 1:0.99999988 2:36 3:0 4:0 5:0 6:1 7:2 8:0 9:0 10:0 # 14321
0.010000000000000001942890293094024 1:0 2:35 3:0 4:0 5:0 6:2 7:0 8:0 9:0 10:0 # 8786
0.010000000000000001942890293094024 1:0 2:31 3:0 4:0 5:0 6:1 7:0 8:0 9:0 10:0 # 47943
0.010000000000000001942890293094024 1:0.99999988 2:36 3:0 4:0 5:0 6:0 7:0 8:0 9:0 10:0 # 59145
-0.095020100727028489195902238861891 1:0.25748503 2:36 3:0 4:3 5:0 6:1 7:2 8:0 9:0 10:0 # 53723
-0.093765530012913919644113036611088 1:1.0394104 2:37 3:1 4:0.23246126 5:6000 6:6 7:1 8:0 9:2 10:0 # 24227
-0.096148672136757040718180178373586 1:1.238452 2:30 3:1 4:0.11464756 5:6000 6:5 7:0 8:0 9:1 10:0 # 35918
0.010000000000000001942890293094024 1:0.99999988 2:37 3:0 4:0 5:0 6:0 7:0 8:0 9:0 10:0 # 6367
0.010000000000000001942890293094024 1:0.99999988 2:23 3:0 4:0 5:0 6:0 7:0 8:0 9:0 10:0 # 27357
0.010000000000000001942890293094024 1:0.99999988 2:36 3:0 4:0 5:0 6:0 7:0 8:0 9:0 10:0 # 83978
-0.093861280522773316015161526593147 1:0.99999988 2:35 3:1 4:0.52331609 5:7333 6:4 7:2 8:2 9:1 10:3 # 96047
-0.095105372520273401271140301105333 1:0.92069679 2:32 3:3 4:0.54940844 5:6000 6:11 7:1 8:1 9:0 10:4 # 61452
-0.094888662487987107674314302130369 1:0.92460191 2:43 3:1 4:0.3670978 5:6880 6:4 7:0 8:0 9:0 10:1 # 1839
0.010000000000000001942890293094024 1:0.99999988 2:39 3:0 4:0 5:0 6:0 7:0 8:0 9:0 10:0 # 31092
0.010000000000000001942890293094024 1:0 2:25 3:0 4:0 5:0 6:1 7:0 8:0 9:0 10:0 # 2247
0.010000000000000001942890293094024 1:0.99999988 2:37 3:0 4:0 5:0 6:0 7:0 8:0 9:0 10:0 # 15545
0.010000000000000001942890293094024 1:0.99999988 2:37 3:0 4:0 5:0 6:0 7:0 8:0 9:0 10:0 # 19988
-0.057300181144834594348935752350371 1:0.99999988 2:40 3:0 4:0 5:0 6:0 7:0 8:0 9:0 10:0 # 29269
-0.10000000000000000555111512312578 1:0 2:25 3:0 4:0 5:0 6:3 7:0 8:0 9:0 10:1 # 20896
0.010000000000000001942890293094024 1:0.054315228 2:23 3:0 4:4 5:0 6:2 7:0 8:0 9:0 10:0 # 77835
0.010000000000000001942890293094024 1:0.99999988 2:24 3:0 4:4 5:0 6:0 7:0 8:0 9:0 10:0 # 40445
0.010000000000000001942890293094024 1:0.99999988 2:23 3:0 4:4 5:0 6:0 7:0 8:0 9:0 10:0 # 15363
0.010000000000000001942890293094024 1:0.99999988 2:39 3:0 4:0 5:0 6:0 7:0 8:0 9:0 10:0 # 65894
-0.098571384130732853101619639346609 1:0.64940238 2:25 3:0 4:7 5:0 6:2 7:1 8:0 9:0 10:0 # 36239
-0.10000000000000000555111512312578 1:0.29609445 2:24 3:1 4:9 5:0 6:2 7:0 8:0 9:0 10:0 # 47236
-0.095248651660490124548630319623044 1:0.95520049 2:44 3:0 4:2277 5:0 6:10 7:0 8:1 9:0 10:0 # 1862
0.010000000000000001942890293094024 1:0.99999988 2:40 3:0 4:0 5:0 6:0 7:0 8:0 9:0 10:0 # 19968
-0.072703770360510122650055109261302 1:0.99999988 2:40 3:0 4:0 5:0 6:0 7:0 8:0 9:0 10:0 # 64637
0.010000000000000001942890293094024 1:0.99999988 2:37 3:0 4:0 5:0 6:0 7:0 8:0 9:0 10:0 # 29421
-0.092348161937010231348210709256819 1:0.99999988 2:42 3:0 4:0 5:0 6:0 7:0 8:0 9:0 10:2 # 18093
-0.10000000000000000555111512312578 1:0.99999988 2:43 3:0 4:0 5:0 6:0 7:1 8:0 9:0 10:1 # 7890
0.010000000000000001942890293094024 1:0.99999988 2:36 3:0 4:0 5:0 6:0 7:1 8:0 9:0 10:0 # 72268
0.010000000000000001942890293094024 1:0.99999988 2:40 3:0 4:0 5:0 6:0 7:0 8:0 9:0 10:0 # 27327
0.010000000000000001942890293094024 1:0.99999988 2:37 3:0 4:0 5:0 6:0 7:0 8:0 9:0 10:0 # 38922
-0.093957272086691467904984165215865 1:0.99999988 2:46 3:0 4:117 5:0 6:2 7:0 8:0 9:0 10:0 # 1872
-0.095342430082619666897869592503412 1:0.99999988 2:41 3:0 4:0.49242425 5:5147 6:5 7:1 8:1 9:0 10:1 # 1878
-0.096038259874169362717566400533542 1:0.99999988 2:30 3:0 4:0 5:2900 6:3 7:0 8:0 9:0 10:1 # 1910
0.010000000000000001942890293094024 1:0.99999988 2:43 3:0 4:0 5:0 6:0 7:1 8:0 9:0 10:0 # 66330
0.010000000000000001942890293094024 1:0.99999988 2:40 3:0 4:0 5:0 6:0 7:0 8:0 9:0 10:0 # 45464
-0.10000000000000000555111512312578 1:0.99999988 2:46 3:0 4:0 5:0 6:0 7:1 8:0 9:0 10:0 # 95358
-0.10000000000000000555111512312578 1:0 2:47 3:0 4:0 5:0 6:1 7:0 8:0 9:0 10:0 # 24146
-0.10000000000000000555111512312578 1:0.081459269 2:44 3:0 4:4 5:0 6:1 7:0 8:0 9:0 10:0 # 75003
0.010000000000000001942890293094024 1:0.99999988 2:39 3:0 4:0 5:0 6:0 7:0 8:0 9:0 10:1 # 82486
0.010000000000000001942890293094024 1:0.99999988 2:39 3:0 4:0 5:0 6:1 7:0 8:0 9:0 10:0 # 6947
0.010000000000000001942890293094024 1:0.99999988 2:37 3:0 4:0 5:0 6:0 7:0 8:0 9:0 10:0 # 55468
0.010000000000000001942890293094024 1:0.021330489 2:44 3:0 4:4 5:0 6:1 7:0 8:0 9:0 10:0 # 94520
0.010000000000000001942890293094024 1:0.99999988 2:37 3:0 4:0 5:0 6:0 7:0 8:0 9:0 10:0 # 78290
-0.10000000000000000555111512312578 1:0 2:42 3:0 4:3 5:0 6:3 7:0 8:0 9:0 10:0 # 60577
-0.094541677576265858995441249135183 1:0.085143052 2:43 3:0 4:7 5:0 6:1 7:1 8:0 9:1 10:0 # 79570
-0.094533511417700055723400964780012 1:0.68016195 2:47 3:4 4:0.37873569 5:9000 6:7 7:0 8:1 9:0 10:2 # 1912
0.010000000000000001942890293094024 1:0.99999988 2:47 3:0 4:0 5:0 6:1 7:0 8:0 9:0 10:0 # 19262
0.010000000000000001942890293094024 1:0.99999988 2:46 3:0 4:0 5:0 6:0 7:0 8:0 9:0 10:0 # 10178
-0.095227391970030716983330876246328 1:1.0227036 2:44 3:2 4:0.200472 5:8050 6:6 7:2 8:0 9:2 10:1 # 1956
0.010000000000000001942890293094024 1:0.020119498 2:44 3:0 4:4 5:0 6:1 7:0 8:0 9:0 10:0 # 68158
0.010000000000000001942890293094024 1:0.99999988 2:40 3:0 4:0 5:0 6:0 7:0 8:0 9:0 10:0 # 55834
-0.095206193057115751088304023141973 1:0.99999988 2:46 3:0 4:0 5:0 6:0 7:0 8:0 9:0 10:5 # 2829
-0.093953800787075825162730779993581 1:0.99999988 2:36 3:0 4:2730 5:0 6:2 7:0 8:2 9:0 10:0 # 1958
-0.094650257406782456470750730659347 1:0.96677738 2:40 3:2 4:0.90261114 5:2833 6:5 7:3 8:1 9:1 10:2 # 1978
0.010000000000000001942890293094024 1:0.0119988 2:42 3:0 4:3 5:0 6:3 7:0 8:0 9:0 10:0 # 17499
0.010000000000000001942890293094024 1:0.0037280931 2:43 3:0 4:3 5:0 6:3 7:0 8:0 9:0 10:0 # 34323
0.010000000000000001942890293094024 1:0.99999988 2:37 3:0 4:0 5:0 6:0 7:0 8:0 9:0 10:0 # 96193
0.010000000000000001942890293094024 1:0.99999988 2:36 3:0 4:0 5:0 6:0 7:1 8:0 9:0 10:0 # 79665
-0.092365322718714670813255906978156 1:0.9094947 2:23 3:0 4:0.14914034 5:2500 6:8 7:0 8:0 9:0 10:0 # 1980
0.010000000000000001942890293094024 1:0.99999988 2:38 3:0 4:0 5:0 6:0 7:0 8:0 9:0 10:0 # 58713
0.010000000000000001942890293094024 1:0.99999988 2:37 3:0 4:0 5:0 6:0 7:0 8:0 9:0 10:1 # 88545
0.010000000000000001942890293094024 1:0 2:26 3:0 4:1 5:0 6:2 7:0 8:0 9:0 10:0 # 31615
0.010000000000000001942890293094024 1:0.99999988 2:40 3:0 4:0 5:0 6:0 7:0 8:0 9:0 10:0 # 85364
0.010000000000000001942890293094024 1:0.99999988 2:46 3:0 4:0 5:0 6:0 7:0 8:0 9:0 10:0 # 77856
-0.0942177224458722317734782336629 1:1143 2:44 3:2 4:0.54776186 5:6500 6:13 7:0 8:4 9:0 10:2 # 1992
-0.094655212075509864710909369023284 1:0.99999988 2:46 3:0 4:0.42785493 5:5183 6:4 7:1 8:1 9:0 10:7 # 2025
0.010000000000000001942890293094024 1:0.99999988 2:41 3:0 4:0 5:0 6:0 7:0 8:0 9:0 10:0 # 2556
0.010000000000000001942890293094024 1:0.99999988 2:41 3:0 4:0 5:0 6:0 7:0 8:0 9:0 10:1 # 94900
0.010000000000000001942890293094024 1:0.99999988 2:41 3:0 4:0 5:0 6:0 7:0 8:0 9:0 10:0 # 83728
0.010000000000000001942890293094024 1:0.034643572 2:24 3:0 4:1 5:0 6:1 7:0 8:0 9:0 10:0 # 67515
0.010000000000000001942890293094024 1:0.75847393 2:34 3:0 4:0.52941179 5:6000 6:10 7:0 8:1 9:0 10:0 # 98351
0.010000000000000001942890293094024 1:0 2:24 3:0 4:0 5:0 6:3 7:0 8:0 9:0 10:0 # 65820
0.010000000000000001942890293094024 1:0.055615574 2:35 3:0 4:0.097317114 5:6000 6:9 7:0 8:0 9:0 10:1 # 9942
0.010000000000000001942890293094024 1:0 2:47 3:0 4:0 5:0 6:2 7:0 8:0 9:0 10:0 # 64222
-0.093444281897700820493923856702168 1:0.90279174 2:32 3:0 4:0.35394102 5:6000 6:15 7:0 8:0 9:0 10:0 # 73239
-0.094784894928806928682263333030278 1:0.76976544 2:37 3:6 4:1.4336283 5:3050 6:8 7:2 8:1 9:1 10:1 # 2070
0.010000000000000001942890293094024 1:0 2:46 3:0 4:0 5:0 6:1 7:0 8:0 9:0 10:0 # 45749
0.010000000000000001942890293094024 1:0.001110957 2:47 3:0 4:0 5:0 6:2 7:0 8:0 9:0 10:0 # 30969
-0.094533127569269237433502439671429 1:0.74150568 2:43 3:2 4:0.18283321 5:5731 6:11 7:0 8:0 9:1 10:1 # 2279
-0.094523127248304139591539296816336 1:1.3886114 2:27 3:0 4:0.036021024 5:7800 6:3 7:0 8:0 9:1 10:0 # 2281
-0.09484635424837739581249707043753 1:0 2:26 3:0 4:0.21912919 5:1400 6:4 7:0 8:0 9:0 10:1 # 2315
0.010000000000000001942890293094024 1:0.99999988 2:39 3:1 4:1 5:0 6:0 7:0 8:0 9:0 10:0 # 13314
0.010000000000000001942890293094024 1:1.3604264 2:46 3:1 4:0.57972765 5:5800 6:8 7:0 8:1 9:0 10:2 # 3839
0.010000000000000001942890293094024 1:0.99999988 2:37 3:0 4:0.99733377 5:6000 6:5 7:0 8:3 9:0 10:2 # 58751
-0.10000000000000000555111512312578 1:0.85618496 2:39 3:0 4:0.35760707 5:6000 6:4 7:0 8:2 9:0 10:0 # 42804
-0.092791205853413050164135711384006 1:0.73947334 2:40 3:0 4:0.48783737 5:6001 6:7 7:0 8:2 9:0 10:2 # 97794
-0.10000000000000000555111512312578 1:0.39885822 2:39 3:0 4:0.49208465 5:6000 6:8 7:0 8:2 9:0 10:2 # 23354
0.010000000000000001942890293094024 1:0.74957126 2:31 3:1 4:0.39060158 5:6000 6:9 7:0 8:1 9:0 10:0 # 80037
0.010000000000000001942890293094024 1:0.052189562 2:25 3:0 4:7 5:0 6:2 7:0 8:0 9:0 10:0 # 54690
0.010000000000000001942890293094024 1:0.82612824 2:36 3:0 4:0.07532078 5:6000 6:3 7:0 8:0 9:1 10:0 # 3606
-0.092060049272815414056481131410692 1:0.99999988 2:36 3:0 4:0.078653559 5:6000 6:2 7:0 8:0 9:0 10:0 # 39384
-0.093768956767640965210830472642556 1:1.4463277 2:45 3:1 4:0.42354766 5:5800 6:12 7:2 8:2 9:2 10:0 # 15800
-0.09465542884795319356072695882176 1:0.016814977 2:43 3:1 4:0.029509816 5:8098 6:6 7:0 8:0 9:1 10:0 # 2318
0.010000000000000001942890293094024 1:0.84313047 2:39 3:0 4:0.46258956 5:6000 6:8 7:0 8:2 9:0 10:2 # 72597
0.010000000000000001942890293094024 1:0 2:40 3:0 4:0.36543909 5:6000 6:7 7:0 8:2 9:0 10:2 # 44178
0.010000000000000001942890293094024 1:0.99999988 2:38 3:0 4:0.52091318 5:6000 6:4 7:0 8:2 9:0 10:0 # 84813
-0.096928835775818789066704539436614 1:0.46753612 2:40 3:0 4:0.38876855 5:6000 6:8 7:0 8:2 9:0 10:0 # 88350
-0.10000000000000000555111512312578 1:0.52724808 2:42 3:0 4:0.45942342 5:6000 6:6 7:0 8:2 9:0 10:2 # 77006
-0.10000000000000000555111512312578 1:0.55344981 2:40 3:0 4:0.24229296 5:6000 6:6 7:0 8:0 9:0 10:3 # 30067
0.010000000000000001942890293094024 1:0.044962533 2:36 3:0 4:0.091984667 5:6000 6:2 7:0 8:0 9:0 10:0 # 18158
0.010000000000000001942890293094024 1:0.15197828 2:36 3:1 4:0.048658557 5:6000 6:2 7:0 8:0 9:0 10:0 # 82844
0.010000000000000001942890293094024 1:0.081946276 2:39 3:0 4:0.33444425 5:6000 6:5 7:0 8:2 9:0 10:0 # 99453
-0.094252200515469453101502494973829 1:0.098532356 2:46 3:0 4:0.091918886 5:9812 6:6 7:0 8:0 9:0 10:0 # 2324
-0.096294603702489545149489913455909 1:0.33193159 2:33 3:0 4:0.44818303 5:5200 6:7 7:0 8:2 9:0 10:0 # 2340
-0.09523328879869363827737061001244 1:0.049761739 2:27 3:0 4:0.21718806 5:2780 6:7 7:0 8:0 9:0 10:0 # 2409
0.010000000000000001942890293094024 1:0.40367469 2:39 3:0 4:0.74670887 5:6000 6:8 7:0 8:2 9:0 10:3 # 79564
0.010000000000000001942890293094024 1:0.25096187 2:40 3:0 4:0.17263789 5:6000 6:6 7:0 8:0 9:0 10:2 # 88080
0.010000000000000001942890293094024 1:0 2:41 3:0 4:0.26145643 5:6000 6:8 7:0 8:2 9:0 10:0 # 59180
-0.10000000000000000555111512312578 1:0.5300228 2:42 3:0 4:0.32077986 5:6000 6:9 7:0 8:1 9:0 10:0 # 65748
-0.10000000000000000555111512312578 1:0.34705937 2:37 3:0 4:0.43876022 5:6000 6:9 7:0 8:1 9:0 10:3 # 16533
-0.09471112806026293906569435421261 1:1.0051658 2:40 3:3 4:0.69055158 5:6000 6:8 7:0 8:2 9:0 10:4 # 99550
0.010000000000000001942890293094024 1:0.33497536 2:39 3:0 4:0.49025163 5:6000 6:9 7:0 8:2 9:0 10:0 # 95267
0.010000000000000001942890293094024 1:0.099913731 2:33 3:0 4:0.23341665 5:5200 6:6 7:0 8:1 9:0 10:0 # 24040
0.010000000000000001942890293094024 1:0.25281993 2:39 3:0 4:0.49041826 5:6000 6:8 7:0 8:3 9:0 10:0 # 60080
-0.096388314293982868541377229121281 1:0.98512214 2:39 3:0 4:0.62156308 5:6000 6:10 7:0 8:1 9:0 10:0 # 37051
-0.093829390981563842721868695662124 1:0.31694716 2:40 3:1 4:0.21196467 5:6000 6:9 7:0 8:1 9:0 10:0 # 24794
-0.094176262653817954806356738117756 1:0.37972963 2:33 3:1 4:0.38069603 5:5200 6:5 7:1 8:1 9:0 10:1 # 82286
0.010000000000000001942890293094024 1:0.0055871238 2:37 3:0 4:0.094984166 5:6000 6:9 7:0 8:0 9:0 10:3 # 68887
0.010000000000000001942890293094024 1:0.40632835 2:41 3:0 4:0.26445591 5:6000 6:9 7:0 8:1 9:0 10:0 # 37788
0.010000000000000001942890293094024 1:0.1835658 2:41 3:0 4:0.20863189 5:6000 6:9 7:0 8:1 9:0 10:0 # 37975
-0.095060909793764691855244564067107 1:0.99999988 2:36 3:0 4:1.0186542 5:1500 6:3 7:1 8:1 9:1 10:0 # 2560
0.010000000000000001942890293094024 1:0.12087912 2:22 3:0 4:3 5:0 6:1 7:0 8:0 9:0 10:0 # 34701
0.010000000000000001942890293094024 1:0.28809327 2:24 3:0 4:10 5:0 6:2 7:0 8:0 9:0 10:0 # 39984
-0.10000000000000000555111512312578 1:0.99999988 2:24 3:0 4:0.0989011 5:1000 6:3 7:1 8:0 9:0 10:0 # 2677
-0.095199801051019217190685139939887 1:0.92358804 2:39 3:1 4:0.18088098 5:3200 6:3 7:0 8:0 9:0 10:0 # 2430
-0.094842927130368015475880838494049 1:0.99999988 2:40 3:0 4:0.024168236 5:3185 6:1 7:3 8:0 9:0 10:2 # 2436
0.010000000000000001942890293094024 1:0.60878241 2:24 3:0 4:9 5:0 6:1 7:0 8:0 9:0 10:0 # 87044
0.010000000000000001942890293094024 1:0.035407599 2:24 3:0 4:9 5:0 6:1 7:0 8:0 9:0 10:0 # 25006
-0.10000000000000000555111512312578 1:0.56905156 2:23 3:0 4:10 5:0 6:1 7:0 8:0 9:0 10:0 # 96215
-0.094225390706488165726284478296293 1:1.3853821 2:22 3:1 4:12 5:0 6:1 7:0 8:0 9:0 10:0 # 9515
-0.10000000000000000555111512312578 1:0.89421159 2:21 3:0 4:13 5:0 6:1 7:0 8:0 9:0 10:0 # 44772
0.010000000000000001942890293094024 1:1.0382128 2:24 3:0 4:0.2857143 5:1000 6:3 7:0 8:0 9:0 10:0 # 76261
0.010000000000000001942890293094024 1:0.001996008 2:24 3:0 4:0.031968031 5:1000 6:3 7:2 8:0 9:0 10:0 # 35955
0.010000000000000001942890293094024 1:1.0526316 2:24 3:0 4:0.059940059 5:1000 6:2 7:0 8:0 9:0 10:0 # 23007
-0.093992336006058052610967479267856 1:0.49380249 2:28 3:1 4:0.55064195 5:700 6:9 7:0 8:0 9:0 10:0 # 2561
-0.094521337461900611920384562836261 1:0.99999988 2:36 3:2 4:3931 5:0 6:5 7:0 8:2 9:2 10:0 # 2648
0.010000000000000001942890293094024 1:0.087403595 2:24 3:0 4:9 5:0 6:3 7:0 8:0 9:0 10:0 # 38527
0.010000000000000001942890293094024 1:0.34365633 2:24 3:0 4:10 5:0 6:2 7:0 8:0 9:0 10:0 # 93313
-0.10000000000000000555111512312578 1:0.99999988 2:23 3:0 4:0.3016983 5:1000 6:1 7:0 8:0 9:0 10:0 # 17804
-0.10000000000000000555111512312578 1:0.96058267 2:25 3:1 4:0.27372628 5:1000 6:4 7:0 8:0 9:0 10:0 # 61233
-0.098036901742275639470847181655699 1:0.99999988 2:29 3:0 4:0.017982017 5:1000 6:0 7:1 8:0 9:0 10:0 # 6610
0.010000000000000001942890293094024 1:0.87824351 2:21 3:0 4:13 5:0 6:1 7:0 8:0 9:0 10:0 # 34482
0.010000000000000001942890293094024 1:0.75249499 2:23 3:0 4:11 5:0 6:1 7:0 8:0 9:0 10:0 # 76412
0.010000000000000001942890293094024 1:0.92215568 2:22 3:0 4:13 5:0 6:1 7:0 8:0 9:0 10:0 # 62261
-0.10000000000000000555111512312578 1:0.66791511 2:23 3:0 4:15 5:0 6:2 7:0 8:0 9:0 10:0 # 80106
-0.094311178262903028191033172333846 1:0.99999988 2:25 3:0 4:14 5:0 6:0 7:0 8:0 9:1 10:0 # 95328
-0.094655204008884052946370957215549 1:0.99500275 2:30 3:1 4:0.17695576 5:4000 6:3 7:10 8:0 9:0 10:0 # 2767
0.010000000000000001942890293094024 1:0.99999988 2:23 3:0 4:0.063936062 5:1000 6:1 7:0 8:0 9:0 10:0 # 22099
0.010000000000000001942890293094024 1:0.99999988 2:22 3:0 4:0 5:1000 6:1 7:0 8:0 9:0 10:0 # 25286
0.010000000000000001942890293094024 1:0.99999988 2:22 3:0 4:0 5:1000 6:1 7:0 8:0 9:0 10:0 # 27450
-0.093765556005859562738180557062151 1:0.071554892 2:30 3:0 4:0.23465464 5:19500 6:11 7:0 8:3 9:0 10:0 # 2824
-0.094670433489529970394471547479043 1:0.99999988 2:32 3:0 4:113 5:0 6:0 7:0 8:0 9:1 10:0 # 2894
-0.093842734034810026955142348015215 1:1.0622153 2:45 3:3 4:2.030194 5:5000 6:14 7:0 8:4 9:1 10:1 # 2909
0.010000000000000001942890293094024 1:0.99999988 2:28 3:0 4:0.040959042 5:1000 6:0 7:1 8:0 9:0 10:0 # 34878
0.010000000000000001942890293094024 1:0.29037347 2:23 3:0 4:15 5:0 6:3 7:0 8:0 9:0 10:0 # 23836
0.010000000000000001942890293094024 1:0.99999988 2:23 3:0 4:15 5:0 6:1 7:0 8:0 9:0 10:0 # 78172
-0.093962172420782752446655194944469 1:1.6359103 2:23 3:1 4:19 5:0 6:1 7:0 8:0 9:0 10:0 # 30543
-0.095718074154116039586881470313529 1:0.98002851 2:24 3:0 4:20 5:0 6:1 7:0 8:0 9:1 10:0 # 58869
-0.094818210764395671752424732403597 1:1.0637821 2:45 3:3 4:0.25758889 5:2305 6:10 7:0 8:0 9:0 10:2 # 2934
0.010000000000000001942890293094024 1:0 2:23 3:0 4:0 5:1000 6:1 7:0 8:0 9:0 10:0 # 93632
0.010000000000000001942890293094024 1:0.99999988 2:24 3:0 4:0 5:1000 6:0 7:0 8:0 9:0 10:0 # 69787
0.010000000000000001942890293094024 1:1.0256518 2:25 3:0 4:0.2937063 5:1000 6:4 7:0 8:0 9:0 10:0 # 83699
-0.095250804243640740942566935700597 1:0.55437976 2:28 3:1 4:0.22787416 5:3400 6:3 7:0 8:1 9:0 10:0 # 2945
-0.093991819800943621210365108709084 1:0.24252492 2:28 3:0 4:0.19089626 5:2833 6:9 7:5 8:0 9:0 10:0 # 2949
-0.095094907955299290414075130684068 1:0.6863544 2:27 3:0 4:805 5:0 6:2 7:0 8:0 9:0 10:1 # 2958
0.010000000000000001942890293094024 1:0.62670302 2:23 3:0 4:20 5:0 6:1 7:0 8:0 9:0 10:0 # 75674
0.010000000000000001942890293094024 1:1.0863787 2:22 3:0 4:9 5:0 6:1 7:0 8:0 9:0 10:0 # 14773
0.010000000000000001942890293094024 1:0 2:43 3:0 4:0.22829528 5:6000 6:9 7:0 8:2 9:0 10:0 # 13987
-0.096566675287709125008461796824122 1:0.64102823 2:44 3:0 4:0.45992336 5:6000 6:10 7:0 8:1 9:0 10:2 # 77784
0.010000000000000001942890293094024 1:0.99999988 2:36 3:0 4:0.1358107 5:6000 6:2 7:0 8:0 9:0 10:2 # 92371
-0.095538850196150604254796689929208 1:0.99999988 2:23 3:0 4:25 5:0 6:1 7:1 8:0 9:0 10:0 # 75267
0.010000000000000001942890293094024 1:0.65913689 2:45 3:0 4:0.33461091 5:6000 6:10 7:0 8:1 9:0 10:3 # 23131
-0.095397597360896035922905866755173 1:0.99562913 2:47 3:0 4:0.97533745 5:6000 6:7 7:0 8:3 9:0 10:1 # 87599
0.010000000000000001942890293094024 1:0.21143346 2:43 3:0 4:0.53574407 5:6000 6:6 7:0 8:2 9:0 10:1 # 79389
-0.094518900319752297001230090245372 1:0 2:43 3:0 4:0.454052 5:7921 6:4 7:0 8:1 9:3 10:1 # 2971
-0.093957752679991846100904240302043 1:0.99999988 2:42 3:0 4:0.13291514 5:8448 6:2 7:1 8:0 9:1 10:2 # 3020
0.010000000000000001942890293094024 1:0.0080711404 2:43 3:0 4:0.39210132 5:6000 6:9 7:0 8:1 9:0 10:2 # 41230
0.010000000000000001942890293094024 1:0 2:43 3:0 4:0.35260791 5:6000 6:10 7:0 8:1 9:0 10:3 # 33452
-0.09999999999995468069613480111002 1:0.68484306 2:45 3:0 4:0.39810032 5:6000 6:6 7:0 8:0 9:0 10:0 # 62746
-0.094226380668762654835290959454142 1:0.16801631 2:45 3:2 4:0.39426762 5:6000 6:4 7:0 8:1 9:0 10:2 # 87600
-0.094521654218482686893310074083274 1:0.9499709 2:42 3:4 4:0.48958507 5:6000 6:6 7:0 8:1 9:0 10:0 # 74473
0.010000000000000001942890293094024 1:0.12887484 2:37 3:0 4:0.22512914 5:6000 6:8 7:0 8:2 9:0 10:3 # 4593
0.010000000000000001942890293094024 1:0.33532935 2:22 3:0 4:5 5:0 6:1 7:0 8:0 9:0 10:0 # 89217
0.010000000000000001942890293094024 1:0.43591487 2:39 3:1 4:0.38743544 5:6000 6:11 7:0 8:1 9:0 10:0 # 61083
-0.094076723921409421969030972832115 1:0.92986858 2:46 3:3 4:0.58088648 5:7083 6:12 7:1 8:2 9:1 10:1 # 3026
-0.10000000000000000555111512312578 1:0.99999988 2:29 3:0 4:0.04914619 5:2400 6:3 7:1 8:0 9:0 10:0 # 3040
0.010000000000000001942890293094024 1:0.99999988 2:42 3:0 4:0.66305614 5:6000 6:7 7:0 8:3 9:0 10:2 # 8023
0.010000000000000001942890293094024 1:0.092550524 2:43 3:0 4:0.36377269 5:6000 6:7 7:0 8:2 9:0 10:2 # 91378
-0.099324488441811631389555259374902 1:0.70067066 2:37 3:0 4:0.3136144 5:6000 6:12 7:0 8:0 9:0 10:0 # 86683
-0.094952959156063165835348627297208 1:0.9936884 2:41 3:3 4:1.155974 5:6000 6:13 7:0 8:2 9:0 10:0 # 33070
-0.09452118605471537815532201420865 1:0.1145826 2:34 3:0 4:0.56836867 5:4621 6:7 7:0 8:1 9:0 10:0 # 3056
0.010000000000000001942890293094024 1:0.69169497 2:46 3:0 4:0.36927179 5:6000 6:7 7:0 8:0 9:0 10:0 # 78715
0.010000000000000001942890293094024 1:0.0051989602 2:37 3:0 4:0 5:0 6:1 7:0 8:0 9:0 10:0 # 58642
0.010000000000000001942890293094024 1:0.011215133 2:46 3:0 4:0.0021663059 5:6000 6:5 7:0 8:0 9:0 10:0 # 56593
-0.093862260427108545890462210081751 1:0.2857568 2:47 3:2 4:0.1358107 5:6000 6:6 7:1 8:1 9:3 10:1 # 94359
0.010000000000000001942890293094024 1:0.78996348 2:37 3:0 4:0.34377605 5:6000 6:12 7:0 8:0 9:0 10:1 # 63784
0.010000000000000001942890293094024 1:0 2:29 3:0 4:0.067471884 5:2400 6:3 7:0 8:0 9:0 10:0 # 14534
-0.094997892284834128950876674934989 1:1.0193506 2:45 3:5 4:0.50416499 5:10083 6:10 7:0 8:1 9:0 10:2 # 3215
-0.094521303053328176169145535823191 1:1.0207568 2:30 3:2 4:0.43953839 5:3985 6:10 7:0 8:1 9:0 10:2 # 3079
-0.094670869533779233861991997400764 1:0 2:41 3:0 4:925 5:0 6:3 7:2 8:2 9:0 10:0 # 3093
0.010000000000000001942890293094024 1:0.9595378 2:29 3:0 4:0.39900041 5:2400 6:3 7:0 8:0 9:0 10:1 # 90882
0.010000000000000001942890293094024 1:0.85382921 2:28 3:0 4:0.19616826 5:2400 6:3 7:0 8:0 9:0 10:0 # 45055
-0.10000000000000000555111512312578 1:0.39597315 2:27 3:0 4:0.26530612 5:2400 6:4 7:0 8:0 9:0 10:0 # 25265
-0.09376129742911076814237958387821 1:0.99999988 2:30 3:0 4:0.37151188 5:2400 6:3 7:0 8:0 9:0 10:3 # 51970
-0.097519817685773557691675250680419 1:0.99999988 2:28 3:0 4:0.25447729 5:2400 6:6 7:0 8:0 9:0 10:0 # 98999
0.010000000000000001942890293094024 1:0.73253495 2:24 3:0 4:0.0099937543 5:1600 6:6 7:0 8:0 9:1 10:0 # 16496
0.010000000000000001942890293094024 1:0.012961289 2:45 3:0 4:0.13247792 5:6000 6:10 7:0 8:1 9:0 10:1 # 18570
0.010000000000000001942890293094024 1:0.093984336 2:24 3:0 4:16 5:0 6:2 7:0 8:0 9:0 10:0 # 2135
-0.10000000000000000555111512312578 1:0.24248898 2:45 3:0 4:0.42716667 5:5999 6:11 7:0 8:1 9:0 10:1 # 76455
-0.09478330851448213412169252478634 1:0.80127233 2:31 3:0 4:0.48615947 5:5454 6:8 7:0 8:1 9:0 10:1 # 3103
0.010000000000000001942890293094024 1:0.2439695 2:29 3:0 4:0.0241566 5:2400 6:2 7:0 8:0 9:0 10:0 # 9272
0.010000000000000001942890293094024 1:0.15498966 2:43 3:0 4:0.39543408 5:6000 6:6 7:0 8:2 9:0 10:1 # 21327
-0.085320078807782806507020723074675 1:0.99999988 2:27 3:1 4:0.12494794 5:2400 6:1 7:0 8:0 9:0 10:1 # 28400
-0.084661285090081639381764944118913 1:0.99999988 2:27 3:0 4:0 5:2400 6:0 7:0 8:0 9:0 10:1 # 12411
-0.094901814975824838604978594958084 1:1.2860687 2:45 3:2 4:0.2972838 5:6000 6:12 7:0 8:0 9:0 10:1 # 52488
0.010000000000000001942890293094024 1:0.99999988 2:27 3:0 4:0.24739692 5:2400 6:4 7:0 8:0 9:0 10:0 # 76492
0.010000000000000001942890293094024 1:0.079604492 2:27 3:0 4:0.017492712 5:2400 6:5 7:0 8:0 9:0 10:0 # 16675
0.010000000000000001942890293094024 1:0.026771314 2:28 3:0 4:0.15326947 5:2400 6:5 7:0 8:0 9:0 10:0 # 99804
-0.09399048398704412665694007955608 1:0.015345635 2:43 3:0 4:0.031514999 5:7900 6:21 7:0 8:0 9:0 10:3 # 3109
0.010000000000000001942890293094024 1:0 2:29 3:0 4:0 5:2400 6:3 7:0 8:0 9:0 10:0 # 4464
-0.097527396538361843525422045786399 1:0.70517981 2:24 3:1 4:0.063306957 5:2400 6:5 7:0 8:0 9:0 10:0 # 98243
-0.095212909442356385980588129314128 1:0 2:30 3:1 4:0.98875469 5:2400 6:5 7:1 8:1 9:2 10:0 # 87183
-0.095282985044326640178269371972419 1:1.1097804 2:32 3:0 4:0.06658344 5:2402 6:2 7:0 8:0 9:0 10:0 # 85078
0.010000000000000001942890293094024 1:0.51740801 2:45 3:0 4:0.54107648 5:6000 6:11 7:0 8:1 9:0 10:1 # 35899
0.010000000000000001942890293094024 1:0.46567756 2:45 3:0 4:0.52041328 5:6000 6:11 7:0 8:2 9:0 10:1 # 68979
0.010000000000000001942890293094024 1:0.038986277 2:46 3:0 4:0.28345275 5:6000 6:11 7:0 8:1 9:0 10:1 # 66224
-0.096403576653743550117781069275225 1:0.62871444 2:46 3:0 4:0.96383935 5:6000 6:15 7:0 8:2 9:0 10:0 # 36733
-0.09435938775102858944165973298368 1:0.71138757 2:28 3:0 4:0.10307565 5:2405 6:5 7:0 8:0 9:0 10:1 # 35549
-0.097171614844566378543788687238703 1:0.29774651 2:46 3:0 4:0.4362843 5:5500 6:8 7:0 8:2 9:0 10:0 # 3225
0.010000000000000001942890293094024 1:0 2:27 3:0 4:0.25572678 5:2400 6:3 7:0 8:0 9:0 10:0 # 61945
0.010000000000000001942890293094024 1:0.99999988 2:27 3:0 4:0.015410246 5:2400 6:1 7:0 8:0 9:0 10:0 # 47414
0.010000000000000001942890293094024 1:0.26788574 2:26 3:0 4:0.082882129 5:2400 6:3 7:0 8:0 9:0 10:0 # 50668
-0.094608085410362696698882700729882 1:0.99999988 2:25 3:0 4:0.11120366 5:2400 6:2 7:4 8:0 9:0 10:0 # 50747
-0.09504713501088879468170489417389 1:0.60312676 2:31 3:0 4:0.6407373 5:3200 6:11 7:0 8:1 9:0 10:1 # 3274
-0.094669635379719174750334786949679 1:0.89010698 2:46 3:3 4:0.98636132 5:3885 6:12 7:0 8:3 9:4 10:3 # 3322
0.010000000000000001942890293094024 1:0.97908014 2:32 3:1 4:0.2468776 5:2401 6:2 7:0 8:0 9:0 10:0 # 78130
0.010000000000000001942890293094024 1:0.92466557 2:28 3:1 4:0.38942108 5:2400 6:6 7:0 8:0 9:1 10:0 # 10550
0.010000000000000001942890293094024 1:0.95409179 2:24 3:0 4:0.14702207 5:2400 6:4 7:0 8:0 9:0 10:0 # 65500
-0.094995468369243662998258059815271 1:0.99999988 2:33 3:0 4:0.34027487 5:2400 6:2 7:1 8:0 9:0 10:1 # 87642
-0.093997623748997116699399612116395 1:0.88028896 2:27 3:3 4:0.28458333 5:2399 6:8 7:1 8:0 9:2 10:0 # 37654
-0.093773420109989458204324819234898 1:0.56381983 2:39 3:3 4:0.18111698 5:7000 6:15 7:1 8:0 9:1 10:2 # 3352
0.010000000000000001942890293094024 1:0.027191537 2:46 3:0 4:0.2530449 5:5500 6:7 7:0 8:1 9:0 10:0 # 96879
0.010000000000000001942890293094024 1:0 2:30 3:0 4:0.63323963 5:3200 6:11 7:0 8:1 9:0 10:0 # 39296
0.010000000000000001942890293094024 1:0.098039217 2:41 3:0 4:0.24662556 5:6000 6:6 7:0 8:1 9:0 10:3 # 9752
-0.09570640846339784069130018906435 1:1.0058317 2:45 3:1 4:0.070896201 5:5500 6:5 7:0 8:0 9:1 10:1 # 17726
-0.098201411307962893637579782080138 1:0.9487046 2:29 3:0 4:0.47079039 5:3200 6:8 7:0 8:1 9:0 10:0 # 97916
-0.096363030396434012914141931105405 1:0.95593888 2:42 3:0 4:0.29503727 5:5500 6:8 7:0 8:0 9:0 10:0 # 54078
0.010000000000000001942890293094024 1:0.14134119 2:46 3:0 4:0.70671552 5:6000 6:15 7:0 8:3 9:0 10:1 # 25448
0.010000000000000001942890293094024 1:0.014341335 2:36 3:0 4:0.052657891 5:6000 6:11 7:0 8:0 9:0 10:0 # 7004
0.010000000000000001942890293094024 1:0.18970257 2:31 3:0 4:0.1027232 5:2900 6:2 7:0 8:0 9:0 10:1 # 58906
-0.094246711109316039234329309692839 1:1.3028287 2:42 3:2 4:0.14647558 5:6000 6:4 7:2 8:0 9:0 10:5 # 87378
-0.094664547404756493875765954726376 1:0.99999988 2:45 3:0 4:0.35791051 5:4000 6:6 7:6 8:0 9:1 10:2 # 3401
-0.094844984808919119423364918475272 1:0.83483946 2:36 3:1 4:0.21261579 5:6800 6:10 7:1 8:0 9:3 10:3 # 3417
0.010000000000000001942890293094024 1:0.011739867 2:28 3:0 4:0.41768196 5:3200 6:8 7:0 8:1 9:0 10:0 # 32824
0.010000000000000001942890293094024 1:0.68966186 2:30 3:0 4:0.52514839 5:3200 6:7 7:0 8:1 9:0 10:0 # 21657
0.010000000000000001942890293094024 1:0.24442497 2:39 3:0 4:0.28011999 5:6000 6:6 7:0 8:1 9:0 10:3 # 92909
-0.096827879714635578523029835196212 1:0.16334662 2:39 3:0 4:0.21779704 5:6000 6:4 7:0 8:0 9:0 10:3 # 34290
-0.09160190327250461450603324919939 1:1.0052414 2:38 3:2 4:0.19863357 5:6000 6:5 7:0 8:0 9:0 10:3 # 89350
-0.09539193340147400501649599391385 1:0.44184279 2:25 3:1 4:0.20274915 5:3200 6:8 7:0 8:0 9:0 10:0 # 64175
0.010000000000000001942890293094024 1:0.28580356 2:39 3:0 4:0.68438596 5:6000 6:9 7:0 8:3 9:0 10:2 # 92855
0.010000000000000001942890293094024 1:0.22918054 2:22 3:0 4:10 5:0 6:2 7:0 8:0 9:0 10:0 # 5583
0.010000000000000001942890293094024 1:0 2:32 3:1 4:0 5:0 6:2 7:0 8:0 9:0 10:0 # 36531
-0.095284348416540098902771660505095 1:0.89700997 2:33 3:0 4:0.40955952 5:3200 6:8 7:1 8:0 9:1 10:0 # 76396
-0.097954876994750472718465061916504 1:0.97257537 2:31 3:1 4:0.33801937 5:3200 6:4 7:0 8:0 9:0 10:1 # 69959
-0.094305442169165032417765814898303 1:0.99999988 2:28 3:2 4:0.18650422 5:3200 6:5 7:1 8:0 9:1 10:0 # 53751
0.010000000000000001942890293094024 1:0.091958322 2:38 3:0 4:0.017497083 5:6000 6:4 7:0 8:0 9:0 10:2 # 70094
0.010000000000000001942890293094024 1:0.35761732 2:37 3:1 4:0.19196801 5:6000 6:5 7:0 8:1 9:0 10:3 # 48414
0.010000000000000001942890293094024 1:0.0029144341 2:41 3:0 4:4 5:0 6:4 7:0 8:0 9:0 10:0 # 16609
-0.095222257045688096788182974705705 1:0.84115887 2:30 3:1 4:259 5:0 6:3 7:1 8:0 9:0 10:1 # 3459
-0.094747067181437327754167654347839 1:0.99999988 2:40 3:0 4:0.006959443 5:4166 6:0 7:1 8:0 9:0 10:3 # 3468
-0.094088058317738920699468962993706 1:0.71123773 2:40 3:2 4:0.57706046 5:8116 6:9 7:1 8:2 9:0 10:1 # 3501
0.010000000000000001942890293094024 1:0.99999988 2:32 3:1 4:0.23773821 5:3200 6:4 7:0 8:0 9:0 10:2 # 32348
0.010000000000000001942890293094024 1:0.20444633 2:30 3:1 4:0.13027179 5:3200 6:5 7:0 8:0 9:0 10:1 # 80213
0.010000000000000001942890293094024 1:0.18615918 2:43 3:0 4:0.047658723 5:6000 6:10 7:0 8:0 9:0 10:0 # 47785
-0.094855918983971054814219314721413 1:1.1594684 2:33 3:0 4:0.13370821 5:3200 6:3 7:0 8:0 9:0 10:2 # 4712
